,BTC-USD,ETH-USD,BNB-USD,SOL-USD,XRP-USD,SHIB-USD,DOGE-USD
2023-08-02,2.8359347729377946,-0.4979547024799167,-1.812106416358191,-0.6681866432352277,0.9530556289345185,-0.5313892783144448,0.7206466385154665
2023-08-03,2.5497193368505724,-0.025682906609120936,-1.7305747587342202,-0.7396224060825486,0.8684769987471321,-0.5350592673963885,0.6127430032245736
2023-08-04,2.701355357991963,-0.20428022718723654,-1.7522285336463972,-0.6838789812884022,0.8343806395078452,-0.5359803879335828,0.6406321325558104
2023-08-07,3.1986950948780906,-0.2500562875037723,-2.667852772476838,-0.6691923024160938,0.9254277707956424,-0.30160323715785925,0.7645817338808303
2023-08-08,3.7451687315039024,-0.19444447734045478,-3.382116366338629,-0.6869636688601645,0.9741478028821192,-0.30606488690512546,0.8502728650583521
2023-08-09,3.992831265371474,-1.0612105993163978,-3.156614240795583,-0.5801157842668911,1.0040593598714995,0.00654751825494117,0.7945024808809569
2023-08-10,4.575963170595918,-1.2314649992512112,-3.969067532216315,-0.659095626860806,1.2141976969650077,0.06799733852734616,1.0014699522400605
2023-08-11,4.7688649905344125,-0.9137833932184207,-4.5588642816721325,-0.6269811513217926,1.2413565978387984,0.009721386197929746,1.0796858516412053
2023-08-14,5.5348918896195105,-2.0333603398942897,-4.603501505883573,-0.590363350734518,1.3571440745649177,0.15466113803219186,1.18052809429576
2023-08-15,5.365718072923574,-2.3051154913142486,-4.087961545062264,-0.5178622195217678,1.2964462267397385,0.16206286984993248,1.0867120863850348
2023-08-16,5.711890400460421,-2.5184838546198853,-3.9924450832729637,-0.6608236698851077,1.3442727806617547,0.054340728315554365,1.0612486983402267
2023-08-17,5.72096671506797,-1.7787313298424483,-3.8885540132245207,-0.7354043408738016,1.3584900658030858,-0.6360517580960448,0.9592846611657594
2023-08-18,9.229381481635379,-2.0817624083162105,-6.6062087507802945,-0.9859690413622794,2.122760214309916,-1.7924160700212337,1.114214574534722
2023-08-21,9.234496032354043,-2.8655212126369207,-7.232772661967856,-0.8850922220596172,2.160959420145301,-0.8862256951425288,1.4741563393075783
2023-08-22,9.140361779939605,-3.2870896823866054,-6.875717451654256,-0.7928908917699704,2.1804385926940935,-1.0132791682675295,1.6481768214446633
2023-08-23,4.861135751862187,-1.2053258681803136,-3.405328727308808,-0.5946241954820763,1.069340197693774,-0.5375755836973233,0.8123784251125608
2023-08-24,6.8845536825307505,-0.9416371088299287,-6.469588663012527,-0.5902582784926316,1.566758442018817,-0.8275367673777536,1.377708693163274
2023-08-25,6.4246521817591065,-1.4608981483161043,-5.32903880759389,-0.5860653390080472,1.429108606672294,-0.6961467652937198,1.2183882717803614
2023-08-28,6.072496677019825,-1.4608486282682813,-4.887171900812602,-0.5987763193259089,1.37313826462327,-0.6603590679382021,1.161520974701899
2023-08-29,7.054591284296402,-1.9272802007515197,-5.485206447466662,-0.571116182136047,1.5242029663806802,-0.9709486454981616,1.375757225175308
2023-08-30,4.179914854538735,-0.6790850371133367,-3.1241149812625517,-0.41453086483119733,0.8169564231461677,-0.5400284878721544,0.7608880933943379
2023-08-31,4.850612921905498,-1.166882449446862,-3.5397762607545364,-0.47085753445984097,0.9297839692193862,-0.489133290912477,0.886252644448833
2023-09-01,5.294238958241936,-1.2462851402335064,-4.139488210639281,-0.5185442987203018,1.0689428810191008,-0.5232167689765295,1.064352579308583
2023-09-05,5.658162794591461,-1.627841548726459,-4.292417937043526,-0.5233990146941052,1.1201726013952196,-0.5092328660523857,1.1745559705297954
2023-09-06,6.05333582383768,-2.140488530036686,-4.408085440821123,-0.3964598212688408,1.1875900144609843,-0.5150956127246092,1.2192035665525942
2023-09-07,5.634727529397266,-1.9458912943342106,-3.9737143223247653,-0.440297291639838,1.092790526749624,-0.4860256247355356,1.1184104768874594
2023-09-08,4.4033562031115,-1.9255980225151967,-2.176586206071135,-0.36612317177804304,0.7090301232621194,-0.3743932085592474,0.7303142825500033
2023-09-11,5.6254821372998824,-2.5314827061416816,-3.1909170521434285,-0.42748703974106583,0.8900550931679909,-0.343167836487514,0.9775174040458168
2023-09-12,6.318147334225725,-2.818693519627398,-3.4655275718019203,-0.5535690842194354,0.947692845778566,-0.5327726614908184,1.1047226571352806
2023-09-13,6.790068215273882,-2.7736067211561504,-4.00772799465152,-0.6290954287211448,1.1075306375547975,-0.7641570538177315,1.276988345517867
2023-09-14,6.44831452933344,-2.2457847446438484,-4.076082392947636,-0.7679656998721462,1.1619643273629607,-0.8343308780161928,1.313884858783422
2023-09-15,4.727542687182115,-1.6254339830206832,-2.666692962969687,-0.48756621146766266,0.7303296291775636,-0.4958941689421505,0.8177150100405043
2023-09-18,4.8233948543004255,-1.9976517262882394,-2.4329617253224813,-0.4406029567949198,0.7056609835813303,-0.43788426230712063,0.7800448328310051
2023-09-19,4.018332722747482,-1.0449858873460494,-2.287674746638268,-0.4780531161223008,0.6398498183129083,-0.5187444591547687,0.671275668200996
2023-09-20,4.067384562215921,-0.7556435666953931,-2.544463347279033,-0.457246294497285,0.5857219171607866,-0.5681015654322166,0.6723482945272203
2023-09-21,3.9772129985740663,-0.5039079056446295,-2.7217049990677267,-0.47940425407514303,0.5115521302209934,-0.4705065479494443,0.6867585779418837
2023-09-22,3.8509816160418207,-0.27863649033317994,-2.6382581997019705,-0.481125924833708,0.3879326705711429,-0.4725324234992167,0.6316387517551117
2023-09-25,3.3519628798409795,0.34683494018825434,-2.7355097898676,-0.537670517032986,0.3804463508229827,-0.364698779639144,0.5586349156875134
2023-09-26,4.043549392247641,0.5950580911931579,-3.5209268314412863,-0.5789897333442068,0.27845075050113005,-0.5735168164861574,0.7563751473297214
2023-09-27,3.6088860769183677,0.7593718436756128,-2.9819549759604316,-0.6352571287654618,0.20242720916184825,-0.5051855593741476,0.5517125343442126
2023-09-28,3.6652374027979335,0.42416719814678067,-2.862573379071009,-0.6191662816306353,0.28337087261658284,-0.4765749371690552,0.5855391243094022
2023-09-29,3.440379964791934,0.45072609154643106,-2.667775854991318,-0.5500283742331517,0.28499484972734024,-0.49499778012400897,0.5367011032827734
2023-10-02,3.7166455858130996,0.9763063382864327,-3.53212194639049,-0.6174311067611556,0.3534533417221148,-0.5797798314166803,0.6829276187466788
2023-10-03,4.5533842232171144,0.820856378097645,-4.360011973260329,-0.4150836373718853,0.25291148291645477,-0.6812878986647866,0.829231425065787
2023-10-04,4.716938447315467,0.7560395599357314,-4.563256482873226,-0.37530348999638624,0.34375793376809155,-0.6806370808197427,0.8024611126700643
2023-10-05,4.878115527378024,0.660088975484064,-4.73241142837421,-0.39034377712469653,0.39036804426626964,-0.6776294830205103,0.8718121413910593
2023-10-06,6.22680837240235,1.1044282222450312,-6.40932356956432,-0.4484384087204409,0.4995966351815419,-1.0433848262440555,1.0703135746998922
2023-10-09,5.437295676645177,0.8893992271728324,-5.465528412582845,-0.39766041416816333,0.3682354813718977,-0.7204911127092446,0.8887495542703461
2023-10-10,5.7608289367759165,0.1075632350884816,-5.0930926644412935,-0.3687151075757155,0.33785879590789186,-0.612067685615847,0.8676244898605656
2023-10-11,5.258275963558227,-0.02749018267542388,-4.291375695961327,-0.336976127145992,0.19690135968109948,-0.5843572356199647,0.7850219181633807
2023-10-12,4.662434243906916,0.3109692626358094,-4.09997112237127,-0.35152793646240904,0.18257205647137248,-0.43522168001964695,0.7307451758392273
2023-10-13,4.780277521608987,0.15097124158425848,-4.100429278319319,-0.3294079590734954,0.2094883153530978,-0.41372077897473475,0.702820937821206
2023-10-16,4.829743732689969,0.03429539573400042,-4.086475677273361,-0.30265094389283864,0.21046358574782165,-0.42171629215127154,0.73634019914568
2023-10-17,4.556652495448186,-0.2029585363363263,-3.579699477480037,-0.18345187812452754,0.18691513682480887,-0.4365373234110833,0.6590795830789796
2023-10-18,4.960427993901208,-0.8328460379600322,-3.505089073382882,-0.10852503989087664,0.17873028809976493,-0.39331410593044935,0.7006159751632678
2023-10-19,5.249886398246322,-0.9530153439852221,-3.758965507751043,-0.16119794349642877,0.24466269388710118,-0.3529275541928853,0.7315572572921557
2023-10-20,5.305134053676054,-1.147957198114429,-3.762868938826236,-0.054242968879117955,0.32070022527872577,-0.3710010276793619,0.7102358545443657
2023-10-23,5.416333585065081,-1.1040158019284263,-3.9832630167373506,0.0670657798114459,0.29489605453654916,-0.4315204802342668,0.7405038794869678
2023-10-24,4.770289332874777,-1.0556973476788754,-3.2171878762703017,0.10424117979872408,0.22292736399429802,-0.4436908615453722,0.6191182088267501
2023-10-25,4.773546695514981,-1.1175282113271572,-3.1142485830774658,0.043505337537845475,0.21426266272554667,-0.40117048393461974,0.6016325825608696
2023-10-26,5.439553076473707,-1.9411488180851029,-3.455265323707309,0.16646455731542878,0.27063268274512364,-0.17500893947188612,0.6947727647300395
2023-10-27,6.234627680436296,-2.8153467365894436,-3.7417836483544495,0.19295383890261816,0.3645523638443315,-0.09406921717391034,0.8590657189345579
2023-10-30,6.776168878768683,-3.5782676765383012,-3.410211048275581,0.26440852541306237,0.4360748226069095,-0.13760044138384264,0.6494269394090699
2023-10-31,6.332039739427699,-3.186907368334343,-3.209997601512851,0.31836041602750703,0.42957598362192,-0.18103199105513137,0.4979608218251997
2023-11-01,7.87183496713666,-3.9260027976981147,-4.196038323907649,0.5555203915350171,0.5548267501761527,-0.35930548778759774,0.499164500545531
2023-11-02,10.687683333803701,-2.46068678539286,-6.749719233423939,0.9463297067476993,0.9660579256754128,0.20383708664759528,-2.5935020340576114
2023-11-03,10.039244332390503,-2.36319206193609,-5.486604391198925,0.8980929780158782,0.9702955738231709,0.03504405078926563,-3.092880481883803
2023-11-06,9.508613922324042,-1.5224386869063438,-5.920320743080113,0.8448844082974952,0.9529268657393155,0.08619507431788362,-2.94986084069228
2023-11-07,6.647170468419396,-1.7634489617815172,-3.618597333905537,0.5913009555011493,0.8957502387636423,-0.16065983275262055,-1.5915155342445122
2023-11-08,10.102930962845235,-3.1314231603291214,-5.7971560648391245,0.9729426069062199,1.1730355616511396,-0.2885730558970208,-2.0317568503373287
2023-11-09,9.078963295571597,-3.1923074105069085,-5.241357795297649,0.9672582568715883,1.0685993165329868,-0.24058499219144253,-1.4405706709801722
2023-11-10,5.54807420695459,0.6841242471973682,-5.474240210185187,0.6821113896647214,0.6487878210383691,-0.08913680325082256,-0.999720651419039
2023-11-13,3.6485365430368324,0.13735637758760477,-3.2447469456383704,0.838044077329814,0.39124206707366255,-0.08187927098925918,-0.6885528484002844
2023-11-14,5.8226802428763325,-0.26203109104792466,-5.150246763745281,1.0756690507188036,0.6318085578675503,0.01345349017392842,-1.131333486843408
2023-11-15,6.17053897874009,-1.0558117865507861,-4.747953226693355,1.408830130624147,0.5753033716218658,-0.29992684721172863,-1.0509806205302339
2023-11-16,4.975030984417117,-0.9498768287879835,-3.6780185572988975,1.3085333110709485,0.44515162028458866,-0.031774381600036004,-1.069046148085738
2023-11-17,6.084425796028951,-1.2806814992248674,-4.704991687251714,1.5636305584736563,0.4799401085619635,-0.26582282512994804,-0.8765004514580417
2023-11-20,5.245232537622742,-1.2021129154931323,-4.123898708092233,1.2731681856901205,0.4111545189040618,-0.07769718263723424,-0.5258464359943246
2023-11-21,4.476003044831871,-0.6941889942434818,-3.2242994888052117,1.100281247183601,0.32424982319473455,-0.23013764402700232,-0.7519079881345112
2023-11-22,6.267456157602338,-0.8101408564031384,-5.284245279880673,1.6081659685188703,0.46436118251627523,-0.20709200210897566,-1.0385051702446968
2023-11-24,4.111026208126891,-0.09574205238657264,-3.676570693929647,1.1638691317092469,0.2797818507110723,-0.162592419655636,-0.6197720245753536
2023-11-27,4.947717397731676,0.1116813868467524,-4.764886893392413,1.391210338629534,0.3364543632442738,-0.37163746225295663,-0.6505391308068661
2023-11-28,9.04753493746826,0.09556191330807884,-9.69629837873604,1.9582144732170916,0.6887046308210171,-0.3062924050592244,-0.7874251710191837
2023-11-29,9.903515633950544,-0.20473297885762343,-9.994112668660334,2.21908863103859,0.6206272140266713,-0.2743857609007807,-1.2700000705970669
2023-11-30,9.310076306919415,-0.13029682020404088,-9.082568035752148,2.160678286119566,0.6546104781981263,-0.22549782617691425,-1.6870023891040036
2023-12-01,10.429971959515136,-0.500599524050362,-9.926494987741687,2.490271710883494,0.7247378975008771,-0.20292721432785057,-2.014959841779608
2023-12-04,11.479184327694515,-1.2024464667974035,-10.328960551769839,2.608110190969762,0.8221304491648154,-0.13699817532094422,-2.241019773940904
2023-12-05,8.286713199202435,-0.8485196336790245,-7.343038413767749,1.7646532622947684,0.549987639891238,-0.0656534282550654,-1.344142625686603
2023-12-06,8.291329753339477,-1.0564835355824544,-7.09704931729855,1.6139760693272482,0.535521791382528,-0.05936295266470688,-1.2279318085035413
2023-12-07,7.860727082267154,-1.1460276437130277,-6.721659719217444,1.507746884387421,0.569723443946491,0.1407207326714106,-1.2112307803420048
2023-12-08,7.482070089462411,-0.08803633474045143,-7.4907433897587135,1.7613557484743838,0.536603960880301,0.0988999628011976,-1.3001500371191286
2023-12-11,6.652181230232142,-0.27471587978143863,-6.616097598113644,1.722249823203251,0.47490347373948266,-0.032785432739028744,-0.9257356165407651
2023-12-12,7.522857778362552,-1.1632379744173131,-6.589631572500437,2.187364563366626,0.48971962891839327,0.13888562056460466,-1.5859580442944265
2023-12-13,6.102396961469739,-1.2344584307386544,-4.719252052490295,1.658236966377848,0.3947982030676941,0.08151163856757745,-1.2832332862539082
2023-12-14,5.714202416760156,-1.3011683019010967,-4.31809234441031,1.5383387728178406,0.3455962510683731,0.01511080819865913,-0.9939876025336222
2023-12-15,5.589590946560181,-1.2395335747121006,-4.345297831838025,1.6579648532933788,0.3302120941394926,-0.006141692898292768,-0.9867947945446349
2023-12-18,6.113945468329596,-1.4876250496869419,-4.726886410873664,1.7631436055016614,0.3931429838063916,0.04660256262711848,-1.1023231597041607
2023-12-19,5.510356309514818,-1.3268357329026566,-4.109010739754782,1.5269751755548724,0.3333730956897399,-0.00046708375410861895,-0.9343910243478837
2023-12-20,3.6810863175432904,-1.0818725250486094,-2.2101606997292285,1.0672683365317823,0.21565869068959728,0.018482371569025536,-0.6904624915558575
2023-12-21,4.189270604729789,-1.3997465991859053,-2.718693759531612,1.2278704617407636,0.2571103650260351,-0.021748608787014755,-0.5340624639920563
2023-12-22,4.689233942337647,-1.772927126198856,-3.1180358031281123,1.5638232906519842,0.2775215591049793,-0.01863147594931892,-0.6209843868183231
2023-12-26,4.123859540480909,-1.3507399132033135,-2.943725617540024,1.4878479816413608,0.2423948415469901,0.0809119425781293,-0.6405487755040516
2023-12-27,3.753612607092682,-1.7323251492637322,-2.041400743784112,1.620513076794244,0.21654018366140798,0.0789927488516064,-0.8959327233520963
2023-12-28,2.4404024236184854,-0.8513385952425704,-1.0598674970726405,1.0450937043013986,0.12047886112133295,0.008908694911669273,-0.7036775916376755
2023-12-29,2.413076968889552,-0.8565764482202247,-1.095026423585603,1.0979728404206677,0.09278854338041759,-0.0009904870261644599,-0.651244993858645
2024-01-02,2.5368097439122477,-0.9301926607447458,-1.3551075499441265,1.3685823831125548,0.0849451083025661,-0.11384097541485955,-0.5911960492236363
2024-01-03,2.733056027104863,-1.0749649391005427,-1.4098447139712962,1.3046351127572273,0.12126875185461264,-0.04043425137509558,-0.6337159872697683
2024-01-04,2.8534134059395635,-1.3241508526517742,-1.110295278106537,1.3024303938395154,0.10509323529923091,-0.100459648106264,-0.7260312562137345
2024-01-05,2.7636004860860837,-1.2641013838608761,-1.0271528933677205,1.2277811237341447,0.09341907697134122,-0.11148198346192635,-0.6820644261010467
2024-01-08,3.4258574859774495,-1.5671706790566824,-1.4811421880824323,1.4252130122203244,0.1303808265609798,-0.07160412012853283,-0.8615343374911063
2024-01-09,3.4892619193327756,-1.5373108318154767,-1.5237111268077703,1.3293225585598314,0.14394181133494324,-0.07497761399249991,-0.8265267166118034
2024-01-10,3.7094950078049513,-1.5508430687814132,-1.783922069987646,1.525729457133761,0.1370524487810874,-0.060036759070720695,-0.9774750158800198
2024-01-11,3.1593909700393623,-0.6641745284461964,-1.886501449209196,1.3302821026852272,0.14469389239677147,-0.1648483156175644,-0.918842671848404
2024-01-12,3.0550729326304027,-0.5031941155525402,-1.9552847347000264,1.370146726831742,0.14463227352611246,-0.16298080695277656,-0.9483922757829136
2024-01-16,3.743488943203606,-0.3955324368670347,-3.061321470047472,2.073627988087247,0.1410898552794334,-0.10853928025192303,-1.3928135994038557
2024-01-17,3.0048584775920197,-0.12082257176357633,-2.547857889872995,2.063962170526824,0.10796544585122188,-0.11766768084346808,-1.390437951490026
2024-01-18,3.4897558546950154,-0.0392537338840672,-3.228704504772413,2.631678047379074,0.12677526877173684,-0.23736429976436302,-1.7428866324249825
2024-01-19,3.4228579574388474,-0.07570738734579942,-2.787157373113934,2.483648392572278,0.13626662848130297,-0.47814047282598343,-1.701767745206712
2024-01-22,2.7430675564200926,0.08384967049227465,-2.1704400155346133,2.146024308772634,0.05404373623642643,-0.47413300562091165,-1.3824122507659025
2024-01-23,4.133779002146135,-0.8259203895109171,-3.133403383919381,2.9128403307928976,0.08976112014934375,-0.8154774319883437,-1.361579247669735
2024-01-24,5.3684802622188705,-1.561489604089653,-3.7546638484166985,3.351909645648598,0.16395737175805533,-0.8504517330088396,-1.7177420941103323
2024-01-25,6.506405917133292,-1.2202240492941736,-5.733118624583003,5.146718634964421,0.047821487533419034,-1.1729694373025217,-2.5746339284514335
2024-01-26,5.096909575180915,-0.45295484319429985,-5.232166838958147,4.594951393986069,0.03145382561550419,-0.8016109445174515,-2.23658216811259
2024-01-29,5.28302811918108,-1.0504046965852007,-4.360857890518894,3.9442256948660344,0.07543131614561875,-0.9753233812551748,-1.9160991618334628
2024-01-30,4.677243665875897,-1.0086711400907267,-3.6578819722342737,3.5345227931822873,0.046066736623202,-0.9023795061033004,-1.6889005772530854
2024-01-31,5.035321852441569,-0.4336736638439591,-4.603555073424227,4.243332694233918,-0.06860799125453473,-1.0193756594240972,-2.153442158728668
2024-02-01,5.662163230830919,-0.5580419220015262,-5.103012444658376,4.443028965627654,0.05619970309297145,-1.0228729002205694,-2.4774646326710723
2024-02-02,7.149983460490283,-0.2779574438193598,-6.602438791840277,5.740183381019142,0.06384904781021071,-1.0973574962564687,-3.97626215740353
2024-02-05,8.452666834806054,-0.8834756484096762,-7.833290872182758,6.816575755817066,0.09050611927994186,-1.2936956933536072,-4.34928649595702
2024-02-06,9.863722231902164,-1.1514611673968507,-9.485697153345603,7.732557740809854,0.1300356333282389,-1.5099279455250108,-4.579229339772793
2024-02-07,13.916583376904407,-0.5338639537016947,-13.992932524617732,10.770352812387571,0.1056811820004207,-2.823939422117584,-6.441881470855388
2024-02-08,8.771839796907972,-0.3662433404599486,-8.343860032140661,6.8138897858839735,0.04467725816061583,-2.4811500978724257,-3.4391533704795263
2024-02-09,8.576647356158318,-1.327815479800954,-6.822094784752445,5.859160210556773,0.07337056807606292,-2.1152507252109327,-3.2440171450268234
2024-02-12,6.56326326295883,-1.098873007973871,-4.890509961321683,4.263710963651965,0.04048158447749424,-1.6523950489450585,-2.2256777928476765
2024-02-13,3.571213904385237,-0.2746053671575715,-2.734866538925953,2.447284796847695,-0.045347908746802744,-0.6560925672771679,-1.3075863191254373
2024-02-14,3.8906728018185675,-0.00030338223338533687,-3.115663832804197,2.7880011628192665,-0.10137437263160266,-1.105225639731531,-1.3561067372371178
2024-02-15,2.8170000027931117,0.11894319991146766,-2.1573153132774103,1.9874742335863869,-0.06235086090133336,-0.6248515615412552,-1.078899700570968
2024-02-16,2.394556721471065,0.0013335043004612439,-1.3640032541057823,1.5349653529785,-0.015082554415755253,-0.608869637791978,-0.9429001324365106
2024-02-20,2.680058051295571,-0.0985154950849555,-1.5315191707026654,1.7220017136969878,0.0067428351027800405,-0.7198780076332357,-1.0588899266744818
2024-02-21,2.0380000501818345,0.44980654700219985,-1.4526876330631167,1.5447020827755937,-0.021894241968337363,-0.5954696822995538,-0.9624571226286202
2024-02-22,1.8214904283414886,0.27631396687996235,-0.9365285855733098,1.3664205658191118,-0.031211204726196637,-0.5135136828874708,-0.9829714878535853
2024-02-23,1.6297159586103862,0.3894394066478078,-0.7771547932138985,1.1524602185602404,-0.030795846159394662,-0.47969562336633725,-0.8839693210788047
2024-02-26,1.7427373439190934,0.39129158269593883,-0.9269415549787869,1.2568407705046643,-0.04972960790150927,-0.5076491877193825,-0.906549346520018
2024-02-27,1.5792441461187354,0.3139275400792628,-0.6837893584808238,1.0671223582218936,-0.055309567654505655,-0.48107642668965495,-0.7401186915949072
2024-02-28,1.615874986375237,0.10910456174580467,-0.6943496663774176,0.8519180949671795,-0.018635730097188656,-0.3910739366429831,-0.47283830997063186
2024-02-29,1.6185022186580806,-0.09723790822672099,-0.6377274762203381,0.7937244329890051,-0.05265774319244489,-0.36750488902199857,-0.2570986349855831
2024-03-01,1.5564089801547016,-0.06337549037839436,-0.7885955345819109,0.9073945893037866,-0.05310953409545399,-0.2530445702170961,-0.30567844018563295
2024-03-04,1.3308898728689253,-0.18783699614056526,-0.7336563578083805,0.8093312857576206,-0.056082370005820066,-0.048753534510715506,-0.11389190016106479
2024-03-05,1.220268308293605,-0.2357648809463646,-0.6836890861018613,0.7118509545507647,-0.04004689085789553,0.13261010371941892,-0.10522850865766752
2024-03-06,1.1219758280741317,0.04300449808544211,-0.7515527119374693,0.750758086512569,-0.07941087672967918,0.2058592713692778,-0.2906340953742722
2024-03-07,0.8846955193407715,0.15106400693063105,-0.5385344593045021,0.6597909647010586,-0.0805828126518725,0.15486041364720832,-0.23129363266329514
2024-03-08,0.8030836495266662,0.08575560630765497,-0.35571057418301183,0.6467042172893014,-0.09359610029704048,0.14005357451141415,-0.2262903731549846
2024-03-11,0.7988341916653644,0.03880409626167432,-0.3430425847879039,0.6723195406877216,-0.12695487671198732,0.13088092884779495,-0.17084129596266434
2024-03-12,0.7765455676739461,0.015468759827809741,-0.24153716327859032,0.5295058761292957,-0.07959927182763676,0.09059611280637624,-0.09097988133120066
2024-03-13,0.8129468309173897,-0.021675336705503485,-0.1663207615743699,0.49926984411521336,-0.07964722454501014,0.09359883197172594,-0.1381721841794456
2024-03-14,0.7549795581021479,-0.09552340297313786,0.006212132418134435,0.46950378543014026,-0.07899508081942905,0.09282227354855403,-0.1489992657064095
2024-03-15,0.7258965839414769,-0.12740435454405644,-0.041252601183827745,0.554532884424161,-0.09160345974453012,0.09540280937520852,-0.11557186226843237
2024-03-18,0.6436673258797053,-0.13889535387266472,0.005742449848033846,0.6105535384156303,-0.10276508456818345,0.10760041395903007,-0.12590328966155134
2024-03-19,0.7392298722424535,-0.15816762977914192,-0.19214020991081684,0.7716507510284129,-0.09705096071033578,0.11447102206019544,-0.1779928449307672
2024-03-20,0.8173763604787054,-0.329249185295024,-0.271946174297293,0.9674086092352017,-0.10836335163414225,0.16653860336575319,-0.24176486185320079
2024-03-21,0.6119129706463735,-0.14887342177399696,-0.21652282170434828,0.8670268630440879,-0.1223866706990319,0.14813658627598184,-0.13929350578906607
2024-03-22,0.5802119353424913,-0.1310694603879237,-0.19108721204511125,0.9133267696891155,-0.20112491169434704,0.13277872265391155,-0.10303584355813637
2024-03-25,0.5901480650866694,-0.21763677660113165,-0.1269550477693555,0.8893645306263829,-0.17324241054329034,0.11662635444788144,-0.07830471524715636
2024-03-26,0.6356843579635421,-0.264538607610821,-0.11094243072071375,0.8612313374741287,-0.18313434209036958,0.11470176051334119,-0.0530020755291076
2024-03-27,0.5931729916796878,-0.2271443194109919,-0.14271028940815872,0.8698125179255329,-0.18532139007360798,0.10695287453536689,-0.014762385247829222
2024-03-28,0.5655422428429162,-0.22878841311367554,-0.10005986562263837,0.8880339031385113,-0.2779277519274545,0.10384152571297914,0.049358358969361894
2024-04-01,0.6124090186915051,-0.33865800655698824,-0.09884617610184054,0.8876710652917518,-0.30900424365732093,0.08498104715785057,0.16144729517504236
2024-04-02,0.5469000440485081,-0.29601999854531996,-0.09633548011496725,0.9607979197323403,-0.3471713107829508,0.07079685296706471,0.16103197269532496
2024-04-03,0.6123608940641496,-0.41980382455863097,-0.14232416710257936,1.0947055522327511,-0.367211448058204,0.07664282014157567,0.14563017328093786
2024-04-04,0.6137531749460373,-0.4020943468842821,-0.08615296484067732,1.0744131827791594,-0.3661438660830924,0.09539616403765948,0.07082865604519557
2024-04-05,0.8772621768296226,-0.44996083714234103,0.08117768700848238,0.8629524558477317,-0.22615918222380813,0.1713521897460619,-0.31662449006574916
2024-04-08,0.926267518121653,-0.5165229236568332,0.08852191930298305,0.8578848607191504,-0.22924665043584153,0.165277454666665,-0.2921821787177766
2024-04-09,0.81035198592485,-0.3535492748447643,-0.002521348517096759,0.8174140730019083,-0.24389735514306501,0.129400342893564,-0.15719842331539643
2024-04-10,0.8053228122693953,-0.43290598532931346,0.01168542229131427,0.8509526701294172,-0.24529078665121767,0.11446904209919812,-0.10423317480879361
2024-04-11,0.6597194081664032,-0.4244390514084951,0.059847333166276905,0.8855989893195462,-0.2705613818664958,0.11086975272928007,-0.02103505010651519
2024-04-12,0.636374685388216,-0.37779365395597964,0.060533726869079145,0.8674053870855324,-0.26888989035855815,0.1198891929518774,-0.03751944798016694
2024-04-15,0.8549165446996068,-0.6027192337124573,0.1705831147306866,0.8088128182494111,-0.27060900885366074,0.11744323736535667,-0.07842747247894308
2024-04-16,1.0518091533380955,-0.7731707418596587,0.11495406264052896,0.917628414475898,-0.3246123121000351,0.12827724989311043,-0.114885826387939
2024-04-17,1.3114498963504817,-0.9852893579157791,0.09121983981225082,0.9244303841635495,-0.3134696602779079,0.1542280135074178,-0.18256911564001282
2024-04-18,1.4631228051481433,-1.0321309988396097,0.049179314558487536,0.921399535379926,-0.2754481901443276,0.172956702561151,-0.29907916866377066
2024-04-19,1.4011727037623565,-0.9998892851440279,0.06118208348283149,0.9615164626699779,-0.3028163858048185,0.16065353675466687,-0.28181911572098634
2024-04-22,1.2061261502757927,-0.7900329894412846,0.08690789806168718,0.8648459722040103,-0.26789169373938604,0.14572985450450177,-0.245685191865321
2024-04-23,1.1958134274219927,-0.8337161730151464,0.15194712613216424,0.7964034870759189,-0.21476603461040297,0.14675000769406232,-0.24243184069858878
2024-04-24,1.1123059450966881,-0.6928735891999824,0.08707094691910108,0.7806337656117325,-0.21336234841426913,0.15066717036002572,-0.22444189037329576
2024-04-25,1.072991356716622,-0.6552062638093893,0.09418328116854381,0.8172608172454647,-0.23690972132859095,0.16643936315026867,-0.25875883314291936
2024-04-26,1.0260757772807017,-0.6184707400869962,0.10184171890789316,0.8216813212341574,-0.24554890895159143,0.17381789248114074,-0.2593970608653053
2024-04-29,1.0029646909725343,-0.6227920703686071,0.10214676170004594,0.8366190892899995,-0.2373267200188502,0.16996849355976854,-0.25158024513489097
2024-04-30,0.8941844060798488,-0.48209398402352405,0.11038099260976665,0.8340596471696745,-0.24932341826554663,0.17896429251578821,-0.2861719360860076
2024-05-01,0.9642869647638477,-0.5835776961960514,0.1955659092945108,0.8113722934803447,-0.25137121955557923,0.1853473678636889,-0.32162361965076147
2024-05-02,0.9394325072031967,-0.5347035513240553,0.06884346112722263,0.9239816471939182,-0.2401905574233553,0.20334522333375007,-0.36070873011067706
2024-05-03,0.931005685258668,-0.5978824817892238,0.10690268589429536,0.9367141256727582,-0.24131363093414437,0.20026804031299372,-0.3356944244153473
2024-05-06,1.0010951504739567,-0.6778287049673254,0.106348067496868,0.8942301440776884,-0.23410090495484584,0.17500321695773174,-0.2647469690840735
2024-05-07,0.9615520537266201,-0.7408264247550935,0.08165058280142132,0.963649935170848,-0.2528042136023834,0.15292747306797516,-0.16614940640938783
2024-05-08,1.1543547009658437,-0.9842783299274558,0.11932995014396458,0.9919930814103782,-0.25031928240957957,0.16676207671788537,-0.1978421969010366
2024-05-09,1.0111543179842641,-0.787624830773943,0.15125518751729275,0.8799665313610066,-0.2122997212967229,0.16693572267629833,-0.20938720746819586
2024-05-10,1.0183242109819284,-0.7934904118146353,0.13805839308349832,0.8848531133643092,-0.22155633852317452,0.1517211002199207,-0.17791006731184655
2024-05-13,1.062074094960526,-0.8637440622119732,0.15580426652190446,0.9169831390084384,-0.23058824680515663,0.16285356222287833,-0.20338275369661737
2024-05-14,1.1057502909379024,-0.8266357798161874,0.15175985505648903,0.8393664130620756,-0.21570203660721382,0.14877362302543556,-0.20331236565850128
2024-05-15,1.215033729781964,-0.9022029112712945,0.1136847925254366,0.8482582025813371,-0.21892152597545855,0.1583638170727443,-0.21421610471472907
2024-05-16,1.214759765767213,-0.8812910059975565,0.07103992828086189,0.8548019814522227,-0.21661556303629187,0.15466237671650748,-0.19735748318295646
2024-05-17,1.3095236470172922,-0.9812745219503923,0.07271239472609137,0.9019158506671874,-0.23123081679305402,0.16966452904834461,-0.24131108271546922
2024-05-20,1.188898081749663,-0.8151004146574458,0.05327057622825574,0.8986240907529905,-0.24384591901216807,0.16622233886230645,-0.24806875392360217
2024-05-21,0.9227348670752455,-0.38083989994513845,-0.005355485447854357,0.8354888551439051,-0.27806786072299833,0.1433092809836708,-0.2372697570868303
2024-05-22,0.7219249732381983,-0.23586558240637306,0.053190427262501075,0.8059499913027466,-0.2939783258838054,0.13843009590362101,-0.18965157941688868
2024-05-23,0.7140588894245317,-0.2609667752358015,0.04581470148274827,0.8571214523412135,-0.30387001348235665,0.1372006496035307,-0.18935890413386594
2024-05-24,0.6658696228006035,-0.20249694151596362,0.007541262249758953,0.8999976103034321,-0.30922515882077123,0.15418133382511068,-0.21586772884217043
2024-05-28,0.7628747501048472,-0.2694622134354876,0.02131818073639025,0.8110208556277647,-0.28056007914381176,0.11710387173340664,-0.1622953656231094
2024-05-29,0.659845119244509,-0.1735215518995105,0.028938587290329505,0.8181960233215718,-0.2907435854378413,0.14549297750703646,-0.18820757002609492
2024-05-30,0.6704599578125459,-0.21755876185859235,0.025906951280956894,0.8616334269061392,-0.31358624411473607,0.15965787531552575,-0.18651320534183918
2024-05-31,0.7459899374946836,-0.2608825383642349,0.05066718336334225,0.8442099586657021,-0.34656059913381543,0.1526461409301239,-0.18607008295580157
2024-06-03,0.7085274971307649,-0.22198774431346202,0.05722246782740513,0.8355424274855526,-0.34623368247993597,0.14033546685303816,-0.17340643250336277
2024-06-04,0.7694065001081164,-0.26940445285613357,0.13439593407317105,0.7506441860169779,-0.30964439916174646,0.1524604481011868,-0.2278582162815722
2024-06-05,0.7740817237332053,-0.32082881022076276,0.22131248026565098,0.7132060872148801,-0.3112228106677151,0.13279522185384762,-0.20934389217910632
2024-06-06,0.7073005264143704,-0.2880714958169339,0.31762447989963444,0.6137576201123498,-0.29026893004613125,0.13273767780409826,-0.19307987836738771
2024-06-07,0.6588547788731494,-0.3073772811253653,0.376763853255144,0.6474544406935755,-0.3044335504385336,0.14754901965659997,-0.21881126091456993
2024-06-10,0.6887426764603427,-0.34733192869408747,0.4280818739739648,0.6363888076922976,-0.3048029219429564,0.13975891729488576,-0.24083742478444725
2024-06-11,0.7916910434557572,-0.3466027540776962,0.31721074928179405,0.6662645186368894,-0.31181945329723343,0.13911462786146875,-0.2558587318609798
2024-06-12,0.8220000570369704,-0.39617384839723696,0.3178176919442651,0.7493459598996948,-0.34582950017893244,0.153333850310212,-0.30049421061497295
2024-06-13,0.5039017122196566,-0.3152528263537862,0.44404131832482013,0.7606217634900857,-0.3639377429793345,0.13894790538123472,-0.16832213008267638
2024-06-14,0.553447878024178,-0.3232376137462523,0.37603471204384026,0.8078914398976308,-0.37976290507539606,0.1421960257216144,-0.17656953686561527
2024-06-17,0.5170228873668006,-0.2215288153440296,0.3781726087482546,0.7452964362167942,-0.33764754493571403,0.1348394784089413,-0.21615505046104716
2024-06-18,0.5223381499170511,-0.20256773515531565,0.38961153651180747,0.7188128666901029,-0.2976628383756011,0.13968042888701368,-0.27021240847505845
2024-06-20,0.5028946596175276,-0.18810966488706393,0.39595471291238954,0.7380429863058642,-0.3024575943734416,0.14821551429930135,-0.29454061387457714
2024-06-21,0.376655547802412,-0.13648735333094286,0.41927363595939265,0.7656108867876704,-0.3243251661637901,0.15485459553014908,-0.2555821465848915
2024-06-24,0.25631391592442415,-0.14101309792509908,0.4726649362737734,0.8366082734940237,-0.3439633865845976,0.1496648857606148,-0.23027552694313927
2024-06-25,0.08245568929216349,-0.13645390897426238,0.5494395942099147,0.9435180162293894,-0.37386541874017665,0.15964008396860443,-0.22473405598563326
2024-06-26,0.0521479451547085,-0.12899199416081863,0.5549010252186386,0.9490877440572622,-0.3774563729333964,0.16841728525608887,-0.21810563259248322
2024-06-27,-0.03604500020196895,-0.11594087042943442,0.5780588928167238,0.9789205274726208,-0.3811096637190347,0.1486558291948252,-0.17253971513373176
2024-06-28,-0.0932613105979504,-0.11256648269869997,0.5868867768166622,1.0224896582511118,-0.39357135083494277,0.1578806341935712,-0.16785792512975223
2024-07-01,-0.12910403270503293,-0.07113083483737968,0.5912821732332413,0.9857386065760836,-0.3703334972476422,0.1741186365504912,-0.18057105156976125
2024-07-02,0.00886918503629815,-0.10057804282182303,0.5730180165187864,0.9039900441854819,-0.3502046350846842,0.16627015797318354,-0.2013647258072427
2024-07-03,0.06677350207798367,-0.19242585889557168,0.5694693320695654,0.9400493818794715,-0.34464600628153264,0.1491886758868694,-0.1884090267367857
2024-07-05,0.06387898459532475,-0.19619434037483202,0.5751772843720427,0.9926208019419062,-0.37673273771979493,0.16559956537858608,-0.22434955819323288
2024-07-08,0.16131632690798078,-0.31168635197907624,0.5540832748123545,1.114359348574427,-0.4112643161353465,0.22649108157625764,-0.33329936375659697
2024-07-09,0.10425694543000112,-0.24035181444181514,0.5808910849757553,1.0322130221738794,-0.3837935432026724,0.22295128411900964,-0.3161669790541581
2024-07-10,0.18268765454440977,-0.23925595712010744,0.5713701267847818,0.9583237571771732,-0.3641088524499179,0.21758313330521864,-0.3265998622415577
2024-07-11,0.14069738203091903,-0.2070360395675929,0.5337566893365892,1.009625589860121,-0.3892442258817625,0.184647310387148,-0.27244670616542144
2024-07-12,0.12888224727541567,-0.16858327038344914,0.5425375142233075,0.9520357262862796,-0.35885770699132863,0.19088827664881525,-0.2869027870590404
2024-07-15,0.14746401402258036,-0.18551300152340844,0.5566704565327757,0.9086144783351038,-0.3185093278293545,0.18293001629971506,-0.29165663583741197
2024-07-16,0.9992984177727926,0.0005646378844907737,1.1618794737309668,1.3009379467385418,-2.651035977769835,0.2781498167918578,-0.08979431514881442
2024-07-17,0.9692783619210836,-0.1504412733860678,0.9431871933064264,1.0968313494085997,-1.9443407393759304,0.2417399403522919,-0.15625483222640343
2024-07-18,0.8778243033680347,-0.1437651423863549,0.8817464626362784,0.9648040594757883,-1.5611875924482752,0.25052252104935346,-0.2699446116948248
2024-07-19,0.9496137175819442,-0.09349538454519568,1.000552816185112,1.1198766877366697,-2.018797571791115,0.2424737947822589,-0.20022405994967454
2024-07-22,1.0506771739368557,-0.0647214746610889,1.029201135627975,1.0888697476354652,-2.1400764239721535,0.25059353820216457,-0.2145436967692185
2024-07-23,1.048438457348928,-0.2775493722732462,0.9236324768736197,1.1766488025860735,-2.0052828716164504,0.20389515913184444,-0.06978265205076933
2024-07-24,0.9280341558546636,-0.11343704188439939,0.9135653567858459,1.1476190257749301,-1.9156870325861528,0.22129771610757018,-0.1813921800524579
2024-07-25,0.9138864331473985,-0.26960728616076723,0.803137058800989,1.1234173648855719,-1.5049431163270783,0.21618384114250527,-0.282074295488619
2024-07-26,1.1756088235030322,-0.40211382570957416,0.8242997941884814,1.0544832925103462,-1.4388149776882613,0.23580826972320215,-0.4492713765272269
2024-07-29,1.181320929967208,-0.4098007603786425,0.8221826233368764,1.0359383149901213,-1.50175067634006,0.21810693819115037,-0.34599736976665385
2024-07-30,1.1094306000188632,-0.29942508242234955,0.7937420298267115,1.0526293006704517,-1.4897879666744869,0.23457935122935,-0.40116823264854007
2024-07-31,1.0524479885933933,-0.35397651554800813,0.8096449531937999,1.0019249151032423,-1.3149125725132942,0.21684897487303048,-0.41197774370216356
2024-08-01,0.9785789354477202,-0.3126381770181788,0.8002780763465337,1.0363641033198028,-1.2754173403373477,0.2351723642922968,-0.4623379620508269
2024-08-02,1.0867341563822148,-0.33440824534791375,0.8082219938842173,1.0638338988730258,-1.391645811737915,0.24726195289412872,-0.479997944947758
2024-08-05,1.1300006507352522,-0.4339823776913763,0.8914843108048798,1.1749122857550889,-1.5646984820607495,0.2546204865021133,-0.4523368740452087
2024-08-06,1.6947424024940183,-1.0645338005243794,1.0935180893301057,1.733292803110508,-2.2260528740201653,0.35338643075815895,-0.5843530511482463
2024-08-07,1.6389336307514628,-1.0645100569308699,0.9979412320242825,1.6259709695204798,-1.9429463685757176,0.27751454149593247,-0.5329039482855701
2024-08-08,1.341887864430901,-1.2089761931220933,0.7472581367892948,1.3825957276975924,-0.9248476604929012,0.24314342487800686,-0.5810613001808005
2024-08-09,1.3294185941715928,-1.027124093232149,0.7027425999043133,1.2578732176245029,-0.9583970048912709,0.18672055310258842,-0.4912338666795773
2024-08-12,1.4875484159476087,-1.1119797875677713,0.7483200436672415,1.256982981411772,-1.055918902940527,0.2020756764352377,-0.5270284269535616
2024-08-13,1.154627446584601,-0.8378227261136076,0.8437113847721701,1.204880536117449,-1.120632447402853,0.197568230159445,-0.44233242411720447
2024-08-14,1.2370033242690504,-0.8721326295643119,0.8295606744948224,1.1202166409423813,-1.0387136586083032,0.1910745852449512,-0.4670089367785899
2024-08-15,1.1645750538995747,-0.8548834358438392,0.8948904102972381,1.1476233230259019,-1.074716588200794,0.21045399890253688,-0.4879427620806184
2024-08-16,1.1140864183047985,-0.9678467965443504,0.9241901453312389,1.2258365323621625,-1.0719113371811733,0.17422167781078501,-0.39857664008346116
2024-08-19,1.1402206379815942,-0.957523258682832,0.8639559061636195,1.120593991094664,-0.9631957993373074,0.17797613060357018,-0.38202760782330875
2024-08-20,0.9440928379735862,-0.798905905895952,0.7941335390019127,0.8575567082698564,-0.5811964317114894,0.153903405037311,-0.36958415267522504
2024-08-21,1.020629102786353,-0.8332586781367758,0.8085988111334025,0.8187193972299004,-0.5693589894093042,0.13821704498898615,-0.38354668859256213
2024-08-22,1.077205826331262,-0.8408622351356543,0.8374598700215029,0.7838479548996775,-0.6351773426807469,0.1591002879166981,-0.38157436135273937
2024-08-23,0.9839590598144556,-0.7869497821098138,0.8619187337519743,0.8103267201459495,-0.6388965718857397,0.16621710363652895,-0.39657526335335463
2024-08-26,1.0635184264959494,-0.7910647048935592,0.8056336197611601,0.7811833842558231,-0.6424206864173954,0.16301805188939678,-0.3798680910913749
2024-08-27,1.1372951458055867,-0.8104430064306325,0.7186378692868003,0.8809257210740759,-0.6640189263156224,0.18131851692955625,-0.4437153203497641
2024-08-28,1.2211753916756773,-0.9751240740889507,0.8022053814655007,0.9656594087629043,-0.7440527591578319,0.19104552770732425,-0.4609088763646238
2024-08-29,1.1055961430590613,-0.8583708504195762,0.8014379850380573,0.9444293019210045,-0.725509490567292,0.19377060050996012,-0.4613536895412151
2024-08-30,1.1083469512384438,-0.9016625365749522,0.8577885260794073,0.9855997584135945,-0.7958974256682961,0.2143877262336487,-0.4685629997218462
2024-09-03,1.0648564014600577,-0.8837724613453607,0.8309293266322889,0.9749189846310828,-0.7440217807031203,0.20120246778901438,-0.44411293846396294
2024-09-04,1.1987717004938114,-0.9129489486499494,0.7828365280101108,0.8791963219222612,-0.6636612517266903,0.17029756930694928,-0.45449191935649313
2024-09-05,1.1537802903438659,-0.870939386325972,0.737089467789385,0.905892566495581,-0.6300809583420217,0.18590892398330544,-0.4816509039441434
2024-09-06,1.1928934317472604,-0.959345119074939,0.7982507201092226,0.9297279638485628,-0.7105795586125215,0.16865919438676824,-0.4196066324043537
2024-09-09,1.2487113962349172,-1.081390819416453,0.8447489642121969,1.031276244537201,-0.7760027086627499,0.19529028096119114,-0.462633357866303
2024-09-10,1.1488929051658516,-1.0507162764300058,0.8550159093703854,1.0230460945557458,-0.7868975081575462,0.1795702181754783,-0.3689113426799093
2024-09-11,1.1910400635621494,-1.005372163911227,0.8214952984551667,0.980161231520821,-0.7609421036983811,0.17741836304136244,-0.4038006889698915
2024-09-12,1.0449078076925018,-0.9280401417827503,0.8317643149276684,0.9420143951782001,-0.6684365896701622,0.18150627495161112,-0.4037160612970687
2024-09-13,0.9824092402327198,-0.945685802487415,0.8378769709962202,0.954864563768143,-0.6129666519454977,0.20075283061827143,-0.4172511511824417
2024-09-16,1.0076627848722632,-0.9244090426818989,0.8148521596157574,0.9052761116608797,-0.5995292309114527,0.18429977556138663,-0.3881525581169352
2024-09-17,1.050086456165682,-1.0200837981779232,0.8284315610504561,0.9061654111975629,-0.5174133711796408,0.19053842660640263,-0.4377246856625396
2024-09-18,1.161975484551985,-1.029862573239705,0.8218556443126355,0.8511380728346529,-0.5488650445689797,0.18252800010987527,-0.4387695840004638
2024-09-19,1.1670884165710544,-1.0191757349619452,0.8271931065528506,0.8264423509085308,-0.5612702576019536,0.190369111151224,-0.43064699261976136
2024-09-20,1.108567503716463,-0.955583136446803,0.8304231852538592,0.8651923221562681,-0.6052562124152555,0.1950836088861197,-0.4384272711506515
2024-09-23,1.0272878431643115,-0.8379424278414,0.8362264753097672,0.8674155571903923,-0.6453199977908777,0.1977305331812696,-0.4453979832134627
2024-09-24,0.9042533295082217,-0.738053662494664,0.8695655890506391,0.8115672007768456,-0.6151832837540739,0.18193462519276166,-0.41408379827973
2024-09-25,0.9276433936044975,-0.7674549433516767,0.8643856473687586,0.8360543871495919,-0.6274008882952595,0.19353899859097173,-0.42676659506688347
2024-09-26,0.9799126305884246,-0.8203735354093133,0.8510790688345777,0.8381931752386025,-0.6237697293177162,0.19380379407335113,-0.41884540400792614
2024-09-27,0.9754659803981572,-0.8428063710602198,0.8280630401939412,0.8587343160669237,-0.6329016247205356,0.22253435591940693,-0.40908969679767365
2024-09-30,0.9120070840959623,-0.817651749659963,0.8481268463013613,0.8628920783169036,-0.6558106809906841,0.2253588719826103,-0.3749224500461904
2024-10-01,0.9156085010244731,-0.8643097433394942,0.7922094117474696,0.9067638820057224,-0.5514302557586019,0.22885345915328562,-0.42769525483285464
2024-10-02,1.050196760149463,-0.9960503565748643,0.8354405509743973,0.9334659447128436,-0.594760084730044,0.22544543211061432,-0.4537382466424097
2024-10-03,1.1593029609732735,-1.0550598665820146,0.9045182532728208,0.9021540521304663,-0.6962656802874888,0.23595254602211024,-0.4506022655291672
2024-10-04,1.2637431415807896,-1.109763744574794,0.9777032207989802,0.9172333402011457,-0.8657600345581291,0.23853430048031618,-0.4216902239283083
2024-10-07,1.139068814156792,-1.0462234118607885,0.9667724638271377,0.9457710781517299,-0.8383119988267709,0.24585228132585366,-0.41292922677395344
2024-10-08,1.1088848101292468,-0.9905252243872504,0.9602808048982069,0.915821365763124,-0.8106928451091008,0.2396129289263348,-0.4233818402205615
2024-10-09,1.0674235923011166,-0.9844299516681887,1.0097546772143335,0.8980407277039869,-0.8005031043354905,0.24954344012464025,-0.43982938134039795
2024-10-10,0.917629218345421,-0.9759406214278356,1.0399907803220958,0.9392330123626291,-0.7917411107104648,0.2392318257162623,-0.36840310460810793
2024-10-11,0.9087992516695248,-0.9113697763196719,0.9742448531269644,0.9272612899645356,-0.7359199632716479,0.24363388446311943,-0.4066495396328247
2024-10-14,0.9893980811972607,-0.9270858191828106,0.9181762257027554,0.8655755193676672,-0.6825397223270109,0.22700046538045246,-0.39052475013831406
2024-10-15,0.926735907326181,-0.8036246056597639,0.8513622924866133,0.8634150007239919,-0.6691704694450815,0.21690134765504474,-0.3856194730869857
2024-10-16,1.028444104751505,-0.8564274178106278,0.8579836342126018,0.8172520744868944,-0.6791747978569229,0.19865230660849464,-0.36672990439194514
2024-10-17,0.9600578112253377,-0.8869240427032014,0.89808702257797,0.8321637711554312,-0.7154619262806571,0.2065051899981324,-0.2944278259730129
2024-10-18,0.921230553148227,-0.8689824015891761,0.8919318769562095,0.826720199832132,-0.7393649334302452,0.17648094120956748,-0.20801623612671422
2024-10-21,0.8882718243065773,-0.8865774956047354,0.8905816266510048,0.8531307078818713,-0.7565931263606388,0.1717607315945793,-0.16057426846865874
2024-10-22,0.7887725627983558,-0.9000446332879217,0.9773942884533005,0.9730132962051059,-0.9516681060602168,0.1617224233975116,-0.04918983150613533
2024-10-23,0.8104801247770643,-0.936210086356969,1.0159356376861988,0.9606673616719466,-0.9524566304513502,0.1775623154047081,-0.07597872273159857
2024-10-24,0.8120166321961696,-1.105266143401687,1.1352101540457462,1.0792331617913986,-1.0639491023551884,0.22244269132035493,-0.07968739359679423
2024-10-25,0.6907065496956007,-1.177642178063522,1.2353649449901944,1.2247252309679062,-1.176975522003792,0.22287050656218688,-0.01904953214857389
2024-10-28,0.8315001168066137,-1.2201026366309404,1.3058054968958848,1.168726594730021,-1.2333791300452475,0.20872189731900725,-0.06127233907533895
2024-10-29,0.8537978764799152,-1.2503577978655696,1.2462910191736405,1.1320530041855297,-1.2192504895295622,0.16513645282896075,0.07232993472708545
2024-10-30,0.8681779916535171,-1.2647831307979212,1.1581548935257593,1.1223998114432467,-1.2346634068749387,0.1239438022810852,0.22677003876925172
2024-10-31,0.9702376582383657,-1.2223905949190765,1.1940055833177312,1.0740865277572018,-1.3392365627944676,0.13337885495309293,0.18991853344715276
2024-11-01,1.1151960391102966,-1.3930465114206916,1.3320446489494036,1.0548596094394462,-1.508497671339022,0.15056861755766254,0.2488752677029045
2024-11-04,1.0630201479438908,-1.3898757586595205,1.4022597013030265,1.0238052964108881,-1.5286634247857946,0.16755522143287005,0.26189881635463963
2024-11-05,1.1833784239171117,-1.5331960995455518,1.3853951686849855,1.1061299522234764,-1.6569763257325785,0.1414179998556934,0.37385088059686333
2024-11-06,1.2617389338977147,-1.6707877062688115,1.385126754504119,1.1415764001500888,-1.670874042116726,0.13072848697778888,0.4224911728558264
2024-11-07,1.8928093394254795,-1.69909373881313,1.250407088770509,1.2940548485215433,-2.2921103662617894,0.16144079036003894,0.3924920379973487
2024-11-08,1.38141723739706,-1.3121592923969234,1.2223032129695373,1.2451449714385059,-2.045716213112877,0.16035621371366568,0.34865386999103215
2024-11-11,1.3282559998940577,-1.2628768967870156,1.2161861180205125,1.2949486676764086,-2.1238511303669094,0.15682828626604997,0.3905089552968964
2024-11-12,1.4951239624241357,-1.7875185177062127,1.30284037256289,1.2834719492019737,-2.0372530662626915,0.12028648651189243,0.6230488132680121
2024-11-13,1.359986699949406,-1.8047409960689262,1.037654441013189,0.981648291696697,-1.3140231580677182,0.01176094089629938,0.7277137805810532
2024-11-14,1.5805659280577462,-1.9726027238523431,1.0462063993294202,1.0851582861920117,-1.454021231286491,-0.019313871852972755,0.734007213412629
2024-11-15,1.2460756709258956,-1.6249912623460925,0.8947653169024328,0.7292649090615759,-0.7233366983794622,-0.015198281564801765,0.4934203454004523
2024-11-18,1.1881291851262334,-1.5214127888992344,0.7588291582152156,0.5894916131959963,-0.4338841450218095,-0.018811065404619517,0.4376580427882179
2024-11-19,0.7923122112274877,-1.1404894232510145,0.562118009154081,0.5763727873237485,-0.019068881124765052,0.029747747863510674,0.1990075488069517
2024-11-20,0.9003187554008932,-1.1921981237347832,0.5473629509353427,0.5633807843533973,-0.022577468300732356,0.007474299106277128,0.19623880223960505
2024-11-21,0.9638831216466709,-1.3726285152582227,0.5047677737128734,0.6610051018292906,-0.029731659313092587,0.011180017054536442,0.2615241603279441
2024-11-22,0.7513516776853649,-1.0939225058512436,0.5197742508457234,0.5625588760341163,0.07391440117000146,-0.0037225526693365645,0.1900458527853741
2024-11-25,0.7401636219978088,-1.153434335993354,0.5364953562593137,0.501736407486056,0.1729643069723655,-0.006505033114189485,0.2085796763919996
2024-11-26,0.47008337839742936,-0.9979108214244842,0.6512124114037432,0.4824392544614145,0.16043113167463835,0.02122722163321676,0.21251742385404196
2024-11-27,0.4791226420020889,-0.9927965290947075,0.6245997233491201,0.4943496706165674,0.17495472080529217,0.01522968228475712,0.2045400900368819
2024-11-29,0.4183305938845289,-0.819392204369585,0.6085071245674611,0.42236314300951167,0.18309452738141976,0.030267652115293805,0.15682916341136985
2024-12-02,0.4021444665358443,-0.8126516189593668,0.6013366810277199,0.3624719289113095,0.2707463901858837,0.02103534340286262,0.1549168088957469
2024-12-03,0.392977002027087,-0.7751310550806475,0.5679531655148342,0.2996484204511728,0.3761024868097615,0.03625213780137794,0.10219784247641407
2024-12-04,0.3205368813381444,-0.7960886556202794,0.6786408833912512,0.30570207366508634,0.3525784399221966,0.042084684065206865,0.09654569323839376
2024-12-05,0.2085852860603904,-0.7571150725230714,0.7203773251591065,0.3150056466292473,0.33816523405639937,0.0611998143396428,0.1137817662782852
2024-12-06,-0.032347581119092604,-0.7808756474752904,0.7814793136988206,0.42853479114538057,0.3677768850241333,0.06382707805124721,0.17160516067480142
2024-12-09,0.02357358709062458,-0.6680194065659276,0.7385929684003196,0.36308932547640277,0.3536203888305149,0.0369187011023879,0.15222443566567795
2024-12-10,0.3333157834796607,-0.8594679075138618,0.7372313992255622,0.26369708332762837,0.34693761284743896,0.013857349617086706,0.16442867901648497
2024-12-11,0.3897771871118725,-0.8429561887114727,0.72438817217305,0.20985685809528432,0.366436338525397,0.02617113362521833,0.1263264991806507
2024-12-12,0.49481639677432593,-0.7577239926104415,0.5923945672035144,0.20578341817913726,0.350439367992829,0.011225343834249285,0.10306489862638553
2024-12-13,0.4266031088482687,-0.7079518588621212,0.5590817828458239,0.24519098693284072,0.3531172518637283,0.007032725079292451,0.11692600329216728
2024-12-16,0.3895119564278879,-0.7183109905704332,0.6202820933103143,0.2202116787574535,0.36043273413492133,0.018498693954313698,0.10937383398554269
2024-12-17,0.6008682859736125,-0.716260063113564,0.5776029657138269,0.11010162430093746,0.351721619940163,0.00518339953831065,0.07078216764671369
2024-12-18,0.5903754335107043,-0.7140838551831535,0.5670122387013913,0.13311015077346403,0.3549784831591067,-0.008024571862487324,0.07663212090097449
2024-12-19,0.553500103026253,-0.7669895287057278,0.6444749943536908,0.1206257117395821,0.3569298232327892,-0.005185584022078525,0.09664448037549145
2024-12-20,0.6537558061586155,-0.7933536928926753,0.5941615029390585,0.11661535483221352,0.36747920807829726,-0.006468269886794412,0.06781009077128507
2024-12-23,0.6226571509840084,-0.7471254336434761,0.621366297316402,0.05246714939296328,0.3764341232521133,-0.00638614324658144,0.08058685594457063
2024-12-24,0.6391192574150469,-0.7464818377704661,0.6684313063828758,-0.04165251089611674,0.3889750597520392,-0.003610006219011947,0.09521873133563258
2024-12-26,0.7690232009994502,-0.8079213835140651,0.6481918264051347,-0.07201485331742323,0.3862567055439063,-0.025457764901083785,0.1019222687840808
2024-12-27,0.9618143675198396,-0.7766454501898532,0.577048171267549,-0.20354835571259855,0.37843441147920076,-0.032799556553038144,0.09569641218890045
2024-12-30,0.9772148154531223,-0.8688834409924906,0.5490088729023345,-0.1458624326773856,0.4007735570268733,-0.02918299587018908,0.11693162415773514
2024-12-31,0.8853497329943166,-0.8679326365553913,0.5612128420738551,-0.06491699367171061,0.3845900758333466,-0.041541803946683525,0.14323878327226716
2025-01-02,0.9246701348286555,-0.8315319205263328,0.5772983654765886,-0.13776836400239156,0.37764727073610943,-0.024319411301012447,0.11400392478838334
2025-01-03,0.7244578626469934,-0.8439582648800048,0.6083238959183093,-0.05472173552201436,0.4333303294520566,-0.03713878035183082,0.16970669273649086
2025-01-06,0.6152532669894032,-0.7609852721671218,0.5060245408077049,0.006370484345904281,0.44615825008501836,-0.05260253550466381,0.23978126544375508
2025-01-07,0.6915500100746517,-0.7504680303026439,0.5062712350834216,-0.057230839343264145,0.43351034285116574,-0.052410182922328005,0.22877746455899692
2025-01-08,0.7043998768309337,-0.8765947558635961,0.5575275503408559,-0.022669596436267318,0.45209967219506014,-0.05413124303038982,0.23936849596340345
2025-01-10,0.36858263186422413,-0.9505894259955349,0.7419535907363334,0.055327731962159475,0.5161682419777457,-0.060955684861052815,0.32951291431612495
2025-01-13,0.5198161092874319,-0.9736533561120684,0.7427565394665019,-0.037584371901974556,0.5027344193152012,-0.050197390596548055,0.2961280505414558
2025-01-14,0.7575828544470277,-1.2559712792452167,0.7860473619437609,-0.03976844267337906,0.5119372566476914,-0.04777109669679295,0.2879433455769088
2025-01-15,0.7869857098641504,-1.2587712006450704,0.7457473816958482,-0.015253257331826227,0.5131531783848371,-0.043898862599219594,0.27203705063128053
2025-01-16,0.8742141697165722,-1.1560314683536466,0.613210402110629,0.022871421388694597,0.4910519976405993,-0.06138735601878494,0.21607083351593642
2025-01-17,0.9933693585659146,-1.2371692031336619,0.565185123498977,0.015345047546870955,0.5121888108491618,-0.0664835606982327,0.21756442337097007
2025-01-21,1.009958071626623,-1.1364049446538753,0.5410808866306256,-0.05209347882052059,0.4897233641179917,-0.06767670619306662,0.21541280729222212
2025-01-22,1.1307817938395963,-1.2193285381336543,0.41461134768221325,0.10838442532224964,0.46674256429628125,-0.05794932008417886,0.1567577270774925
2025-01-23,1.0612181869138504,-1.2841766594396393,0.45153177794927807,0.17086850177577098,0.48742739407379976,-0.06047541514197023,0.17360621386891045
2025-01-24,1.0488575740211266,-1.0945062080916865,0.37706161257337073,0.1725943528995923,0.44911008915035144,-0.050315218758779263,0.09719779820602478
2025-01-27,1.0192650909606167,-1.0647762677889865,0.3792372591174688,0.1626287729780993,0.451691628266753,-0.053922140895352695,0.10587565736140145
2025-01-28,1.0435438988633199,-1.065160526112129,0.43988435640982054,0.08209551740871787,0.4553317603365506,-0.05385773964480735,0.09816273273852767
2025-01-29,1.091682395240649,-1.0894459065111521,0.4219069370924966,0.07912091201443139,0.4619965596767069,-0.059553581631855694,0.09429268411872413
2025-01-30,1.104779982496737,-1.0858087563821615,0.4188738968883403,0.056858688535255136,0.4643835056197387,-0.06015890138066248,0.10107158422275268
2025-01-31,1.0314119141799807,-1.03170698126428,0.4226199382166974,0.04125089770576897,0.4795889491548482,-0.05236362366331923,0.10919890567030419
2025-02-03,0.9747689727126573,-1.0128265010707764,0.4550227558058177,0.01886920005975644,0.4929387897569255,-0.054802787070750654,0.12602956980636998
2025-02-04,1.1694819240865817,-1.1192243184168291,0.41200237439603254,0.027202315225098406,0.4737193416742753,-0.05516991110233168,0.09198827413717288
2025-02-05,1.2423021955658693,-1.2000115141388747,0.3833869774578024,0.0400576010917003,0.49136093048004215,-0.055694425968742446,0.09859823551220309
2025-02-06,1.2547339761960128,-1.1221469908569124,0.386378529962126,-0.03354138746046186,0.474818357972155,-0.05070303556370575,0.09046054975078613
2025-02-07,1.3046791050500466,-1.166571330294886,0.38757293836025175,-0.01652775473979113,0.46397471941870205,-0.05777606531645441,0.08464838752213108
2025-02-10,1.3274758897761563,-1.255542191329356,0.4193661851975709,-0.0034485676280648046,0.4780791046090279,-0.05511539742825784,0.08918497680292364
2025-02-11,1.2419731218818415,-1.2776283628811813,0.49858040365858364,0.005886756142464938,0.47838154295068247,-0.04226994732406792,0.09507648557167661
2025-02-12,1.1814935258361625,-1.3133907852004898,0.5492749049079617,0.010639188035000573,0.4962111193739597,-0.040506409340128134,0.11627845638753363
2025-02-13,1.075006369132296,-1.2717684546381038,0.6397933935083814,-0.028281831513322517,0.4940328350410462,-0.03017865576758881,0.12139634423729163
2025-02-14,1.0425357223869256,-1.4585168264174797,0.7060751160886577,-0.01067554166808101,0.5714873346879553,-0.06850354308790549,0.2175977380099276
2025-02-18,1.0093452233039106,-1.4358692279332859,0.6781868889184886,-0.003782503799505003,0.5898786636252911,-0.04238981382689557,0.20463076971199606
2025-02-19,1.14443625189139,-1.458568646707388,0.7218595257302954,-0.1548264633314579,0.6036597730064537,-0.07377499590996066,0.21721455532066733
2025-02-20,1.1883511288558635,-1.4722016098439885,0.6551504272403204,-0.13558440453663262,0.6180367880546939,-0.07986610181601492,0.2261137720457583
2025-02-21,1.184002061028528,-1.4625097049495923,0.6157389657272748,-0.07463327342563221,0.5993120639216973,-0.06104204061013248,0.19913192830785717
2025-02-24,1.300127642789199,-1.7189375265831408,0.7177221110953719,-0.04158622489172713,0.6018914236363843,-0.05882276681705312,0.19960534077096592
2025-02-25,1.5091163847195725,-1.7555977187478913,0.6464270143129703,-0.15145350837646832,0.6200589038398244,-0.05688254696807177,0.1883314712200641
2025-02-26,1.4197083839756244,-1.8389403978425942,0.6878711164952537,-0.08647082367232756,0.6553570390776013,-0.060629900331708654,0.22310458229815136
2025-02-27,1.4147492269695476,-1.960873312973855,0.775986158699179,-0.09515833586821287,0.674674452600425,-0.05108050164785405,0.24170231222077018
2025-02-28,1.5058215106281096,-2.2913735872156593,0.8416558865458247,-0.09507980113853992,0.7708980642777513,-0.04137703197653664,0.3094549588790502
2025-03-03,1.438801271038333,-2.5191403806984276,0.9200561949676067,0.08551674701018686,0.7922336745515384,-0.03577155746981485,0.31830405060057765
2025-03-04,1.4583931122438398,-2.5670059373789798,0.9373951129740092,0.041024230116405894,0.8861489647472546,-0.031216825131415205,0.27526134242888556
2025-03-05,1.4960207218018216,-2.2825831029655244,0.9137690715769203,-0.08312636852021453,0.7911522308585532,-0.05675981622804612,0.2215272634764897
2025-03-06,1.5886154343493564,-2.0145353430270085,0.8137615940074533,-0.12914220988300562,0.7161151279036809,-0.10095371995506375,0.12613911660458718
2025-03-07,1.5649411292583735,-1.9026772299540875,0.9476992831569373,-0.013157730403017594,0.8469297281339508,-0.8615811870070395,0.41784600681488304
2025-03-10,1.5693417681128765,-2.001101691568544,1.0191104514876734,-0.011913060949603269,0.8041229763212474,-0.9372706290857026,0.5577101856820526
2025-03-11,2.062584392177776,-2.6858417483776176,1.1223382054929374,-0.06881045149595866,0.9419244571487225,-0.9194181772822536,0.5472233223363943
2025-03-12,2.2348784278882947,-2.6408322880071187,0.9635881811985583,-0.1404808242860416,0.9441949819957842,-0.9081850780560488,0.546836599266572
2025-03-13,2.2143711811673406,-2.671969865147343,1.0004999663114735,-0.12110035395970556,0.9967051459539126,-1.0339598404492378,0.6154537661235596
2025-03-14,2.188900302402132,-2.854819031370336,1.131909133054253,-0.10772077516413583,1.048874552086016,-1.0265307310058396,0.6193865499979104
2025-03-17,2.201506632305295,-2.8204449081011096,0.9781771835199161,-0.08231538960496912,1.0531796096924486,-0.9392540917692564,0.6091509639576753
2025-03-18,2.3324241605582685,-2.8381046889018964,0.9260192702816344,-0.20884693596342532,1.1057878837054995,-0.972541532685571,0.65526184300549
2025-03-19,2.1979921835956464,-2.3486848146892783,0.902157214795268,-0.38001593938515943,0.977913100845656,-0.7980342276001655,0.4486724824380328
2025-03-20,2.354248459746006,-2.1274880796547877,0.5525563550925258,-0.457709304357758,1.0223303469194847,-0.8210853588755265,0.4771475811300563
2025-03-21,2.0406647603684784,-1.9254835807859052,0.8588520512533855,-0.6117986274030326,0.8814128867226305,-0.6705883119765166,0.42694082182096005
2025-03-24,1.803186584381477,-1.6544661567344763,0.8214566006236043,-0.4713063185237171,0.7594736206009061,-0.5935208054338793,0.33517647508608556
2025-03-25,1.9309397813326497,-1.810448147137447,0.7554319407605982,-0.4660579787044977,0.8516334433512175,-0.639272053398595,0.37777301379607436
2025-03-26,1.9922857573036685,-1.8592663940397192,0.6997639499601311,-0.38418953368404357,0.8069797418514791,-0.6131470435805562,0.35757352218904015
2025-03-27,2.0669589728668494,-1.8255823129530817,0.6267143191341193,-0.4315577039261512,0.8014430506302637,-0.5935393529743573,0.3555630272223578
2025-03-28,2.0525374488045784,-1.9477005715343132,0.7387694664599495,-0.43153555040943914,0.859550970551298,-0.63257526784742,0.36095350397534637
2025-03-31,2.0985874776222677,-1.9577701755820232,0.7981120471423292,-0.464161355869599,0.864384677435784,-0.7051617423960121,0.3660090716472535
2025-04-01,2.1119242215018006,-1.9009752684531895,0.7793268541328204,-0.4514364189895797,0.8451391177017713,-0.6729391532320761,0.28896064733845317
2025-04-02,2.091552260450206,-1.6964746878148766,0.6814543196557478,-0.45129413873393714,0.7843285222767061,-0.5588816815068077,0.14931540567296173
2025-04-03,2.1998334464721725,-1.780748353445785,0.6897436156418936,-0.5373527612648883,0.7992474534554564,-0.539232327746377,0.16850892688752797
2025-04-04,2.1074429196034155,-1.5968677051359488,0.6215419166234274,-0.5242655225020487,0.7270022447650452,-0.4684435186288525,0.13358966527496197
2025-04-07,2.143769453937049,-1.7126776765312104,0.6235207875267631,-0.524057575525377,0.7818557549887004,-0.5333423366747646,0.22093159227883935
2025-04-08,2.403470503956414,-1.990560197641101,0.6406829171114132,-0.5760395924759144,0.8612980807017138,-0.6121149383814883,0.2732632267289628
2025-04-09,2.380911863190443,-2.200555479971047,0.7500634501671238,-0.4900164677765739,0.8697330556354715,-0.5698083628971139,0.25967194165169644
2025-04-10,2.2165862653075985,-2.1258025647873917,0.7786225625502806,-0.36156214430169703,0.8331593897156582,-0.5181034504147088,0.17709994193026024
2025-04-11,2.2523675435426966,-2.210569740032362,0.7951629716632489,-0.35876204993924127,0.8178555429977268,-0.4692287234291078,0.17317445519703878
2025-04-14,2.3200695340097206,-2.1925613152505585,0.6931075229215049,-0.3031381215079158,0.819274509336321,-0.49456847842864027,0.1578163489195683
2025-04-15,2.2534244540854047,-2.1099420363850654,0.6419365873068533,-0.24951144442807283,0.8296462078676774,-0.5190248217010115,0.15347105325421417
2025-04-16,2.2071768467610724,-2.0799317998985876,0.5772163066543717,-0.20653782971392837,0.839451329282368,-0.47563710699498185,0.1382622539096858
2025-04-17,1.9765015575388507,-1.9481056845898155,0.6185217336648934,-0.09857063877196102,0.7418747970103029,-0.36367968788685184,0.07345792303458144
2025-04-21,1.8835336493108292,-1.9589739635070145,0.7004201701180303,-0.055384503704736236,0.7344378728983291,-0.42682215524490896,0.12278893012947116
2025-04-22,1.92796192501925,-1.86558440825585,0.624673212759343,-0.07074567320945212,0.6753192607450033,-0.39666231136606794,0.10503799430777383
2025-04-23,1.8887096202483995,-1.7112632796556195,0.5191014492207083,-0.11535413965171766,0.6637875049166451,-0.33681079902181577,0.09182964394340025
2025-04-24,1.9156501242031225,-1.6826450262311734,0.45417787930480225,-0.10682339405702754,0.6798324428544965,-0.3402851320224187,0.08009310594819813
2025-04-25,2.145839755364242,-1.8514608213832648,0.3853118629807327,-0.1407126188559374,0.7496438801524009,-0.4855108524512098,0.1968887941930366
2025-04-28,2.172420501076657,-1.8261460538625824,0.3552160757260716,-0.1459780429145165,0.7376324667775023,-0.4774283808354755,0.18428343403234396
2025-04-29,2.1578422675110494,-1.7438472374059033,0.3055174868856405,-0.1569396009312706,0.7255222984179173,-0.4509101179443469,0.16281490346691355
2025-04-30,2.1957833445125017,-1.7733992242409315,0.286878056406082,-0.13239621887219657,0.7468386275875946,-0.5162918525652511,0.19258726717220115
2025-05-01,2.135192416039574,-1.775259520294452,0.3213561238777772,-0.08391903266776987,0.7130620952847156,-0.47925750725358224,0.1688254250137376
2025-05-02,2.1415617092408525,-1.8332890933695882,0.32432025309679036,-0.06804267377229017,0.7109031088347364,-0.47090219137603007,0.19544888734552937
2025-05-05,2.101838265819062,-1.718527356678718,0.2803199882128548,-0.07124780271768141,0.6666370744572949,-0.42699006327031375,0.16796989417750138
2025-05-06,2.1149146879701117,-1.5714807765920116,0.32088718911650543,-0.17109287998144368,0.5903546197246039,-0.41000272152207135,0.12641988128430562
2025-05-07,2.1108545643011074,-1.555205820383396,0.3354903448540712,-0.1907534017415802,0.5813185591698677,-0.3966810115677955,0.11497676536772539
2025-05-08,2.1394262103647574,-1.6056594776322666,0.3324831806672759,-0.18046607621455257,0.6065833253631395,-0.4025131332932161,0.11014597074486245
2025-05-09,1.9317584918815378,-1.1278857239691007,0.17268929351577328,-0.2450444999127916,0.5999888838613848,-0.44443176434050763,0.11292531896370403
2025-05-12,1.6618306908366085,-1.0535550782775966,0.28051993356553373,-0.1818163936693296,0.5863861050986919,-0.40434546656078785,0.11098020900687972
2025-05-13,1.671679077364794,-1.0532424393474302,0.15497647446163873,-0.18875862788874456,0.6714425358888569,-0.4884128832415741,0.23231586276245933
2025-05-14,1.6191783464457352,-0.9542032323072013,0.11859981498625052,-0.20964479076050418,0.7009663416746881,-0.5191471729782515,0.2442506929392832
2025-05-15,1.6628667554442305,-0.9189915948387394,0.07957963874194153,-0.23144634168530367,0.672095604864183,-0.47039171618260234,0.2062876536562904
2025-05-16,1.688008907944094,-0.9217498642275047,0.11146591808370222,-0.24469204534794434,0.6696705778863656,-0.5116648990867376,0.20896140474802488
2025-05-19,1.6314580590625578,-0.8995597714904082,0.1617911716983317,-0.23061584866315843,0.6414175741695275,-0.511110822987659,0.20661963821080873
2025-05-20,1.6555968693153786,-0.9258505452885616,0.20024156823571743,-0.2931500192697019,0.6778601721356423,-0.5623299012823556,0.2476318561538805
2025-05-21,1.650687631458876,-0.8809155320590856,0.21104580359705155,-0.3149299261534864,0.6476652642275738,-0.5677415064751548,0.25418826540422534
2025-05-22,1.6618856846052936,-0.9188723138440948,0.25269059730350313,-0.3352197650691063,0.6383173981801997,-0.5427447366850933,0.24394313550929803
2025-05-23,1.7321760338717236,-1.2304671811234937,0.38715793821180133,-0.3319698620586627,0.6905539130516712,-0.5566400439458932,0.3091892019928534
2025-05-27,1.9101648277621466,-1.3872682859343157,0.3006312819314999,-0.25353858641790195,0.707550402885184,-0.5576374665932652,0.2800978263666524
2025-05-28,1.7910298632320705,-1.2364419856162714,0.33502453540724103,-0.2683752397738364,0.6613461720870972,-0.521010141192157,0.2384267958558562
2025-05-29,1.7657783544086487,-1.2228249582037038,0.3896914509538966,-0.2924847108019707,0.6316647095482838,-0.5111847459371118,0.23935990003195748
2025-05-30,1.762837623215309,-1.251499816040173,0.378813288204936,-0.27620373078521965,0.6507622267383337,-0.4863637354213622,0.22165414408817607
2025-06-02,1.881525464768863,-1.2788463046600478,0.3994065326027415,-0.2991828402951176,0.6510467993431909,-0.6054057398647148,0.2514560881050849
2025-06-03,1.8436039393500434,-1.1704332116950265,0.3975663984979805,-0.3199936058874846,0.6310607873996364,-0.6282088512408037,0.2464045435756546
2025-06-04,1.830072887539086,-1.1927868503411132,0.39373149518876854,-0.3244780892781265,0.6531922166639685,-0.6031865405234766,0.24345488075089317
2025-06-05,1.8248470117303075,-1.1652137189403142,0.38816077096141416,-0.3279476523829762,0.628221388638892,-0.5456524036574516,0.1975846036501282
2025-06-06,1.9700045532113941,-1.2667259125082495,0.3200672568520718,-0.33897530387140795,0.6733920836217583,-0.5667544224856078,0.20899174518004116
2025-06-09,2.1500643864288707,-1.2792057702376314,0.16463619787065717,-0.384176924321942,0.7319496691415751,-0.6466255764976707,0.2633580176161412
2025-06-10,2.119824116459119,-1.2057247657634838,0.10725605014354987,-0.3542221301667839,0.7188377292517322,-0.6458410494388834,0.25987004951474973
2025-06-11,2.0997453547994334,-1.1376622200610338,0.034562935186736546,-0.3426969197136804,0.7435831078213347,-0.6824331264237159,0.28490086839092543
2025-06-12,2.015468869598389,-1.1315116299979802,0.08282997503005218,-0.333886560556666,0.7418800929642452,-0.6712077303615449,0.29642698332350464
2025-06-13,1.8390012299875755,-1.1599663240188975,0.29622040131273536,-0.3161416078843402,0.7059478750640825,-0.6498046095405191,0.28474303507936344
2025-06-16,1.7915774808887968,-1.1283566408805878,0.31951257393803223,-0.2971667690615482,0.6607814598644824,-0.6001370630616029,0.2537889583124276
2025-06-17,1.8443419195476514,-1.1222800760366107,0.2744365231645498,-0.2995754919168483,0.6594314715995637,-0.5431060461500747,0.18675169979176898
2025-06-18,1.7660091654804198,-1.1259279738731525,0.3222074884237657,-0.27093371062392,0.6455654317813411,-0.5133041727468896,0.17638377155843546
2025-06-20,1.8069806303732692,-1.1571636459281487,0.27892233695202645,-0.26532994468735943,0.6500087410231385,-0.5012371682670471,0.18781905053412118
2025-06-23,1.8386372527564119,-1.2252175657371316,0.31671799550690904,-0.2738901100115097,0.6462853298812741,-0.5211322952551263,0.21859939285917263
2025-06-24,1.7936484330593323,-1.2407194552919465,0.30817248688349375,-0.2220121876266388,0.6080111241466848,-0.41008735550418046,0.16298695433325505
2025-06-25,1.7719176779708365,-1.2397251281965447,0.31059424326469653,-0.18678846809616406,0.5994647725375526,-0.4011317936162361,0.14566869613585898
2025-06-26,1.806780582050306,-1.2142388217332196,0.30696419411338327,-0.21571052902808333,0.5712936674298761,-0.3784274232064416,0.12333833037417911
2025-06-27,1.8279933390684007,-1.070583808767083,0.2801798310731426,-0.2690677278806928,0.5096570147326889,-0.36285535288922793,0.08467670466277144
2025-06-30,1.8195703121951556,-1.070788795046734,0.28578968250715775,-0.2627539175510436,0.5289812731858152,-0.3875779191955938,0.08677936390524299
2025-07-01,1.741784864040936,-1.080232141479636,0.2994225830389147,-0.20301531679533644,0.5322839123622257,-0.3783730100214949,0.08812910885439086
2025-07-02,1.8317146683634378,-1.0619943312467979,0.29923589857075006,-0.30566000467362636,0.535344611898625,-0.3762464966150148,0.07760565370262618
2025-07-03,1.754720402678104,-0.9986446389183281,0.27660033190821104,-0.27329452234638374,0.5066753569158077,-0.320327178911964,0.05427024867455298
2025-07-07,1.7547701457027922,-1.0164547238274568,0.2850985967045458,-0.2980478365391982,0.5302004295543671,-0.3363416818776017,0.08077507028255154
2025-07-08,1.7965191459254055,-0.9762839795521502,0.2744411810662145,-0.35673188878792156,0.5184314213454834,-0.31142106644146106,0.0550451864444296
2025-07-09,1.7197435298428891,-0.9468908724228078,0.27535329479878584,-0.3023044455058359,0.5073046646921441,-0.30540102244884815,0.05219485104367277
2025-07-10,1.5304994549442552,-0.7834681140152492,0.35604921572087217,-0.3162617634137797,0.4687443801607592,-0.31940968709539963,0.06384651369854191
2025-07-11,1.57801792696477,-0.7314772418445387,0.30281271567917517,-0.35059205472110705,0.4657467550669467,-0.3335069466224445,0.0689988454771983
2025-07-14,1.5752141376244777,-0.7481318750208789,0.3083899493657795,-0.36179442194028355,0.48400736626942564,-0.34474130518599705,0.08705614888747651
2025-07-15,1.6170993689336646,-0.7347876219463013,0.2714820843813357,-0.3725333841596031,0.48460387989660864,-0.3327326630796064,0.06686833597390178
2025-07-16,1.561836008188882,-0.7056098771757247,0.24461098775074397,-0.3505038611254252,0.49262892443128553,-0.30209883602501997,0.059136653955258314
2025-07-17,1.511553116051805,-0.6537137313655248,0.23489367892710367,-0.3481521565696953,0.5043715856732697,-0.3454991461088997,0.09654665339194157
2025-07-18,1.517179209509785,-0.6587053041074707,0.23649577016809384,-0.38380156255031406,0.561580530701141,-0.40257308759500887,0.12982444387377415
2025-07-21,1.4471079171563923,-0.6627228509111635,0.2728544323441456,-0.396225742989241,0.5638211210030774,-0.4108462975282847,0.18601142092507422
2025-07-22,1.26222980354536,-0.6891156659822768,0.3484237507285207,-0.3084070875220407,0.5712944895450696,-0.47340217246451977,0.28897688214988704
2025-07-23,1.2533428497976478,-0.7229692829176524,0.36001674295141667,-0.29414010411436753,0.5674499779464106,-0.4102484804756078,0.24654829681215257
2025-07-24,1.338868133035513,-0.6814789298845355,0.353371747225523,-0.37750228863109614,0.5704254680388059,-0.43479888019817237,0.23111475041396207
2025-07-25,1.3400784435644417,-0.55412694645485,0.34178539330578184,-0.4460151345641559,0.5463052089090145,-0.3879581203133534,0.1599311555531216
2025-07-28,1.3022504160726251,-0.6242750466766376,0.3784162080476139,-0.39172494823203974,0.5304599350488205,-0.36681434152349524,0.17168777726311324
2025-07-29,1.2593211272505231,-0.5194382564277339,0.4322898566316818,-0.44024283810357007,0.4965736776279602,-0.3869830286386872,0.15847946165982624
2025-07-30,1.2458397416344251,-0.47656740917075135,0.3886752038271837,-0.4483917471460055,0.5163060671985283,-0.3816590341373104,0.1557971777939301
2025-07-31,1.2831445281257514,-0.4431450245870587,0.3778568438248997,-0.5078922065751402,0.5380911606760466,-0.3962965847454465,0.14824128328094735
2025-08-01,1.3192785704544208,-0.491569131457081,0.40725669367158474,-0.5121801609946913,0.5324324212004801,-0.4335028332630611,0.17828444038834773
2025-08-04,1.4057285152505536,-0.533074970180274,0.3514567191819117,-0.5355340836357029,0.5396867415487466,-0.39970835158798385,0.1714454294227487
2025-08-05,1.3451882910488033,-0.4761780093016016,0.32925052996454285,-0.49800056350164357,0.5181863088256718,-0.36938006072828033,0.15093350369250755
2025-08-06,1.3487340698049681,-0.48272034316066126,0.3320623882831315,-0.5004329628101827,0.5427861758384267,-0.41777394528016165,0.1773446173244793
2025-08-07,1.2637210509749475,-0.4495576905563898,0.3597722215061585,-0.42205283534571736,0.48803312474147686,-0.380012790957362,0.14009691963688634
2025-08-08,1.0665542776211852,-0.2827062628728451,0.4037154616084219,-0.3546898754945693,0.39866696817824604,-0.2907065052830088,0.059165936242570084
2025-08-11,1.0636205468301745,-0.22741359069994563,0.3907403040209024,-0.427366798832556,0.42390924941715163,-0.3198053849928735,0.09631567425714654
2025-08-12,1.0761342682259254,-0.1254028430568971,0.3765110553240069,-0.45115471814308283,0.3656588374462119,-0.30794998526812095,0.06620338547195662
2025-08-13,0.9790819649559734,-0.0934441813928682,0.3835730456454731,-0.4365943171813073,0.4016226501032493,-0.313444768834739,0.07920560670421864
2025-08-14,0.9476226631624605,-0.07518144876821792,0.37997389026227674,-0.3986652965042687,0.3945100626719125,-0.3345600269203103,0.08630015609614713
2025-08-15,0.9834637815470474,-0.16416896756515081,0.39133226073374344,-0.33319504703919156,0.3878176457491022,-0.31835325401389963,0.053103580588348874
2025-08-18,0.9817650534317681,-0.1575248171903046,0.3839916711061609,-0.36608570654667894,0.41244470063457506,-0.3453587474031776,0.09076784596765715
2025-08-19,1.0015269576559072,-0.19374667448320257,0.40187215906921886,-0.3506414506713901,0.3917604545534769,-0.3298006116088687,0.0790291654848585
2025-08-20,1.0329955666840278,-0.19570604065789982,0.38900629396577596,-0.361739298403215,0.38693406811192166,-0.32450688659876414,0.07301629689815381
2025-08-21,0.90992992276794,-0.18469853272103143,0.4428657589580214,-0.31800782988832665,0.38649298023775003,-0.3090756594263588,0.07249336007200555
2025-08-22,1.0084434386464927,-0.15162585543777418,0.3516862258809738,-0.3683531775054222,0.4099795241276542,-0.3598974902254857,0.10976733451356108
2025-08-25,0.9420152350353115,-0.02097769728312205,0.32156803779133863,-0.3585574591105957,0.40620336832811094,-0.41660028479004746,0.1263488000290043
2025-08-26,0.9381296995477811,-0.06230269171231466,0.32514259823275043,-0.3535437481327151,0.4600104393823017,-0.4444962795614322,0.13705998224362875
2025-08-27,0.943594089697322,-0.030843713274934573,0.2758223983619501,-0.3509873871605904,0.4574041927080817,-0.4116547912093179,0.11666521087748913
2025-08-28,0.8850832340496887,-0.051935923047775695,0.3296446049669434,-0.3400651654806932,0.5065880858110781,-0.508461319020531,0.17914648272128983
2025-08-29,0.7839017973976875,-0.1177162182496086,0.4901004749371595,-0.32474598090950996,0.4485241361886642,-0.43792305293674516,0.15785884357235233
2025-09-02,0.7830369623832991,-0.06051021970459241,0.4717601927208946,-0.3277075109978967,0.4296269754639327,-0.4484002833978234,0.15219388353218619
2025-09-03,0.8651773228026239,-0.13242743944578395,0.42877415086472853,-0.2811237056714453,0.41148786781163216,-0.42101613544138045,0.12912793907962503
2025-09-04,0.8344991706979561,-0.10752208272936364,0.4245746743336014,-0.27020695511715814,0.4177969239792174,-0.43965479545595926,0.14051306429170607
2025-09-05,0.8673498050699618,-0.13225034854996995,0.42193362556881997,-0.26935095213857063,0.4081269322092766,-0.40969996427220795,0.11389090211268993
2025-09-08,0.8304260365666309,-0.14735050506219474,0.4341984949831121,-0.22972830819616588,0.3925375817150197,-0.3902532161469815,0.1101699161405794
2025-09-09,0.7696058656209291,-0.1939713298336296,0.5331468776938416,-0.24066841563793667,0.3979875589623603,-0.41739039365331887,0.15128983684775374
2025-09-10,0.7829256850957701,-0.18880468079959498,0.5043765639794758,-0.21557673808198155,0.3778226631567029,-0.365836754311759,0.10509326096138671
2025-09-11,0.8041488581886647,-0.15758462901761974,0.48964369503670285,-0.21426588786092413,0.3514706774035736,-0.37425383901475584,0.10084112526435846
2025-09-12,0.8080340673400428,-0.13644206293627315,0.47458450204979985,-0.23001222851018024,0.37187075354432325,-0.4014336233851531,0.11339859189744059
2025-09-15,0.7216218842190427,-0.12365570996988223,0.4989492667035852,-0.21080031137408198,0.3825205903968353,-0.40862884506768754,0.1399931250921886
2025-09-16,0.7541403574551361,-0.13097285784468907,0.4732507949422361,-0.21152965270034157,0.3828904952490682,-0.4098622631442277,0.14208312604281806
2025-09-17,0.7580457696407439,-0.13036511436430567,0.49719884296528544,-0.21896674226538265,0.37630986697284563,-0.4424095108923101,0.16018688794312358
2025-09-18,0.6698452475827944,-0.1405604285066418,0.5547862503282136,-0.2017020331145666,0.3961104579585592,-0.4669769722730402,0.18849747802468142
2025-09-19,0.691096817181603,-0.12775678765862827,0.5283026311452105,-0.18012415131669554,0.35668366741082586,-0.4274230119505565,0.1592208351882409
2025-09-22,0.6542036798635658,-0.14343842785500976,0.5583421869620145,-0.17903302784221165,0.3724120322459812,-0.41968674423468794,0.1572003008603479
2025-09-23,0.6456472067933178,-0.1458164951556098,0.6142804509935359,-0.20799306538889298,0.3882525605892075,-0.4714759677987,0.1771053099671415
2025-09-24,0.6355947037301521,-0.1664169650229575,0.669972426976918,-0.2552387061740256,0.3941812202452598,-0.4566724453966372,0.1785797656412902
2025-09-25,0.6731947069133544,-0.21327181379529517,0.6753530069178629,-0.26816746757059373,0.39775414002502685,-0.44365706514714026,0.17879449265678485
2025-09-26,0.7974581882168629,-0.25136509625831316,0.5649398371406898,-0.30658632790356294,0.44418383338799133,-0.43402615721129595,0.1853957226276281
2025-09-29,0.7382797801023312,-0.18462534394120783,0.5976932887782398,-0.335852526403589,0.4654433402535141,-0.5249850747726194,0.24404653598333093
2025-09-30,0.7239952734217319,-0.17261072508905323,0.6315239818231683,-0.30110418192808575,0.4100261177051977,-0.47887845307709703,0.18704798714413828
2025-10-01,0.7358694586254734,-0.07103354224024934,0.6886724750617778,-0.3822667805316072,0.4670739644466929,-0.741240230529364,0.30292465516727657
2025-10-02,0.7709533542512497,-0.06417431234561868,0.6566978545541391,-0.36619358299998667,0.46561298299521425,-0.7676513801655419,0.3047550837105443
2025-10-03,0.7046559183917988,-0.1268563967764087,0.7201728198760601,-0.3065706125107458,0.38933287235358155,-0.6170251424464884,0.23629054111220238
2025-10-06,0.6926594894483591,-0.13363144342895716,0.7314576640554397,-0.29146159249584846,0.34716654687668924,-0.5282256999925008,0.18203503553681832
2025-10-07,0.6573395820985286,-0.08859784311218437,0.7354226077145827,-0.3011972796156876,0.35920050101348266,-0.5510340032208675,0.18886643512214554
2025-10-08,0.6198753467364938,-0.10894265381497802,0.7863057510731752,-0.2885368930388303,0.3604715199570116,-0.5522340453146892,0.1830609744018167
2025-10-09,0.6287090379394344,-0.09757645709518502,0.7852790609260708,-0.2972017415540397,0.3701319416068094,-0.5976147693799991,0.20827292755690918
2025-10-10,0.6657853808320408,-0.10598329783013154,0.7575037515846508,-0.3154717534706552,0.38504697605558086,-0.6058546907637399,0.2189736335922541
2025-10-13,0.8081958795568017,-0.08088304693849506,0.6980455422271915,-0.3814631348406969,0.4171325771649118,-0.701829940246289,0.24080212307657584
2025-10-14,0.74356618983787,-0.06918050226240328,0.7308740939747348,-0.3430884428778695,0.38611586322548486,-0.6444112210903534,0.19612401919253636
2025-10-15,0.7840043890655934,-0.07507639310459939,0.6932795685714903,-0.3482557909225787,0.3935227503005102,-0.6488558150938906,0.2013812911834746
2025-10-16,0.7721971622398394,-0.02991625302899263,0.7318130618126512,-0.4052976898897782,0.43873694117011264,-0.7749094311359742,0.267376208832142
2025-10-17,0.7280698637724187,-0.043617332400098595,0.8274679110338082,-0.4831699377080476,0.4969642456986557,-0.8478518876030008,0.3221371372062642
2025-10-20,0.7215475948518743,-0.0068134597845783875,0.7785566411312485,-0.50197347163489,0.5543093959816213,-0.898157429651752,0.3525307291064764
2025-10-21,0.7360454991890129,0.016458369090572245,0.7549362074251914,-0.4808965881208169,0.5509312588830696,-0.9140640890485193,0.33658934258149037
2025-10-22,0.740260997152591,-0.007425031635678175,0.728501228194744,-0.4543916228251151,0.5569850999216672,-0.8629574771408887,0.2990268063326799
2025-10-23,0.7457085544988105,0.0017619128756483787,0.7628755310755517,-0.485107987236066,0.5566180193242379,-0.8647296476238994,0.2828736170857168
2025-10-24,0.8106887397874085,-0.04540619526252781,0.7287442460177656,-0.4602720417287511,0.48492540431771447,-0.7026917915849736,0.1840116384533638
2025-10-27,0.797325188452588,0.005251195392571164,0.7178185795740086,-0.4965336417785681,0.5132698835226266,-0.751542481259767,0.21441127609654054
2025-10-28,0.8103454463816921,0.09138194325648516,0.6885242674682196,-0.5335850262631264,0.485516120332349,-0.7270268315189805,0.18484408034336064
2025-10-29,0.8225082792931694,0.09544408446776668,0.6798703093010987,-0.5643035784830476,0.5138217848696015,-0.7323747864215068,0.18503390697291824
2025-10-30,0.7274739601477296,0.06349287594440114,0.7357188679859054,-0.5239566112155504,0.5334793847389944,-0.7485790846524997,0.21237060705101946
