,^SPX,AGG,IEF,VNQ,GLD
2023-08-02,1.4211611322038384,6.432918855462278,-7.10473184136537,-1.381154432890218,1.6318062865894716
2023-08-03,1.3628849324316394,7.5882071633674215,-8.361717885438608,-1.382364983258305,1.7929907728978514
2023-08-04,1.676520420051359,7.473980220549126,-8.576071730447701,-1.6241743485955153,2.049745438442731
2023-08-07,1.3693701853417855,7.0014928819526805,-7.789482949462357,-1.4484098426706566,1.8670297248385492
2023-08-08,0.9464036019894289,6.8389810202933505,-7.007153127995112,-1.0280533505650282,1.2498218562773618
2023-08-09,0.9575282084857705,5.516060728596262,-5.458519665250168,-1.0210599948005519,1.0059907229686873
2023-08-10,1.00281263720399,5.9494113528552655,-5.827865317902917,-1.0856810298146942,0.9613223576583559
2023-08-11,1.33215403781917,6.231263890855142,-6.280279345090376,-1.365319879162605,1.082181295578669
2023-08-14,1.3502535803965783,7.265804105881267,-7.5108562143279265,-1.5001463184613437,1.394944846511425
2023-08-15,1.2244639129862074,6.409413858171075,-6.396643540786417,-1.3450299333236022,1.1077957029527363
2023-08-16,1.7664582206603499,8.388882380110825,-8.74463897094327,-2.0459081381384165,1.6352065083105107
2023-08-17,1.1179543779889693,8.114225189676946,-8.149998326806072,-1.5086387651463233,1.4264575242864794
2023-08-18,0.8832504993524445,7.921886145105909,-7.791088465772235,-1.3121584333396579,1.2981102546535386
2023-08-21,0.7257368572572821,6.750047738415591,-6.442964955096563,-1.0751681539057456,1.0423485133294346
2023-08-22,0.9471959137054354,7.5337751463591305,-7.528116379286571,-1.326494543574004,1.3736398627960091
2023-08-23,0.743453046246211,6.420145690687788,-6.21649871468069,-1.044527524437668,1.0974275021843602
2023-08-24,0.6030277196235855,5.161631314588648,-4.818890294950749,-0.7733171084470826,0.827548369185597
2023-08-25,0.531263075249422,5.451997604359243,-5.120697952773568,-0.7359102267979434,0.8733474999628467
2023-08-28,0.6048062468124714,5.254696562334262,-4.890036380619813,-0.7855297025671011,0.8160632740401816
2023-08-29,0.61118929117771,5.539909436801191,-5.234182999775162,-0.8240958225941892,0.9071800943904493
2023-08-30,0.7098166751168898,4.624380469152479,-4.410944316416137,-0.7611547372827456,0.8379019094295135
2023-08-31,0.7208172435043305,4.356160560577229,-4.130144684682793,-0.7372876801932324,0.7904545607944651
2023-09-01,0.9054977259284226,4.064328406775466,-4.035892673230667,-0.8523144951158863,0.918381035642664
2023-09-05,0.7741425946895432,4.111571288929552,-3.9903138407246517,-0.7424932943619191,0.847093251467476
2023-09-06,0.9774848403815872,3.9322991674669483,-3.988788094643803,-0.9121670617789295,0.9911711485741972
2023-09-07,0.8169620764176062,4.394862524333069,-4.2880047278912246,-0.7777123056043103,0.8538924327448595
2023-09-08,0.629865487376081,3.977478549453047,-3.5998635529648,-0.6386825525391355,0.631202068674808
2023-09-11,0.7019427296093009,4.154159961770245,-3.811627468909943,-0.7276449633257026,0.6831697408561
2023-09-12,0.6448170524001365,4.118943195165334,-3.746513103008918,-0.6897579770869758,0.6725108325304235
2023-09-13,0.5786371790159269,4.258935913248002,-3.803394989804534,-0.6690980138224336,0.6349199113630386
2023-09-14,0.5573790967767082,4.2207023403145465,-3.657077112595791,-0.6715935960279468,0.5505892715324833
2023-09-15,0.6586044996739128,3.7178278077334745,-3.3027973558985084,-0.6261209987713607,0.5524860472624816
2023-09-18,0.5756200265509038,3.9463164284136965,-3.613015323474898,-0.5809854923830566,0.6720643608933543
2023-09-19,0.5214121822555311,3.779476017301028,-3.488076099156771,-0.5243916939891463,0.711579593589358
2023-09-20,0.5285725825558933,3.8876371117317814,-3.542049145624075,-0.5311410828445975,0.6569805341809976
2023-09-21,0.443654175185892,4.00122762650039,-3.637339837984516,-0.48238056874025464,0.6748386050384881
2023-09-22,0.4995669366561701,3.9927196842818575,-3.6823207621551,-0.5349963299940158,0.725030471211088
2023-09-25,0.5315735147899557,3.918485635352078,-3.5968756194027685,-0.5355773062134045,0.6823937754741389
2023-09-26,0.7709473868263239,3.424541501611178,-3.301029751363419,-0.664908071104444,0.770448934030361
2023-09-27,0.5322129220983214,3.806877887025438,-3.473527939868848,-0.5176849695408149,0.6521221002859041
2023-09-28,0.5313348497304333,3.5634460224379825,-3.1861358237565787,-0.49109417673386796,0.5824491283220307
2023-09-29,0.516452432806235,3.3733298512645784,-2.945985835739069,-0.4525861780170371,0.5087897296852926
2023-10-02,0.530037059576139,4.084571241534672,-3.6582564987098007,-0.49352256861542576,0.5371707662144153
2023-10-03,0.6072487457230709,3.986548981115677,-3.5597973993840037,-0.5137771016164608,0.47977677416171716
2023-10-04,0.8034640849615601,3.8820313713430807,-3.5029038964431245,-0.6750341664772529,0.49244260661573647
2023-10-05,0.600876771255656,4.38288794090256,-3.793381756072894,-0.5637544440280141,0.37337148794269215
2023-10-06,0.5713895689277436,4.573396346803319,-3.938109522866734,-0.5663756996622896,0.35969930679796125
2023-10-09,0.6371939489494034,4.366310833189064,-3.828216673443208,-0.5811479523315228,0.40585984363626326
2023-10-10,0.564542990614303,3.8108310219284665,-3.2840694051738426,-0.4805953029249396,0.38929069555601287
2023-10-11,0.5909024832823639,3.496016602240803,-3.0040783335046966,-0.44598473467178573,0.36314398265331527
2023-10-12,0.5327574967061898,3.2027919430769014,-2.751469106312955,-0.37858079991244786,0.3945004664423117
2023-10-13,0.6030261376769869,3.419773365730828,-2.9997873231411276,-0.45500634047098004,0.43199416020429243
2023-10-16,0.5042470206295435,3.541241644347107,-3.127490120446834,-0.3976389747879376,0.47964043025812114
2023-10-17,0.49064045860518424,3.62650063204717,-3.250762719734804,-0.3940179662020497,0.5276395952845
2023-10-18,0.5056414058639019,3.5174055691003794,-3.2104008906528736,-0.3691788636316828,0.5565327793202749
2023-10-19,0.49204789105171354,3.7729772531046013,-3.4784572871931716,-0.4292483895904416,0.6426805326272986
2023-10-20,0.44412102099035455,4.07207128336323,-3.7470442408414364,-0.4415661131319596,0.6724180496198114
2023-10-23,0.34886248067878245,3.8420610497112766,-3.479359408936637,-0.3671636579415496,0.6555995364881281
2023-10-24,0.36805117707319057,3.5973579663722552,-3.148198511637757,-0.37890653194144586,0.5616959001337566
2023-10-25,0.2688203871155639,3.881490766706143,-3.3260991520625725,-0.32393163441011424,0.4997196326509801
2023-10-26,0.19280410222633465,4.197663601617419,-3.631303910790321,-0.3068519860457282,0.5476881929922947
2023-10-27,0.08291510624088493,4.682732456151169,-4.042474231978855,-0.285776253208167,0.5626029227949682
2023-10-30,0.14719387872201514,4.607007863169731,-4.032673097715899,-0.3366502286257788,0.6151215844499326
2023-10-31,0.2192371585747236,4.668306947021378,-4.15756863527552,-0.3726732720050191,0.6426978016844372
2023-11-01,0.1462806865998206,4.784378006132647,-4.246512059770256,-0.3408157828744157,0.6566691499122049
2023-11-02,0.17809702522809412,4.382251024323798,-3.7780100123432456,-0.33505599919419526,0.5527179619855488
2023-11-03,0.2132277638424995,4.101641136930315,-3.5296423788559506,-0.31499244282756994,0.529765920910706
2023-11-06,0.253060493903739,3.667759401347737,-3.1703852787231765,-0.27391865982593966,0.5234840432976402
2023-11-07,0.3407216150496091,3.5011956160015187,-3.0191905401883306,-0.32772816435135815,0.5050014734885612
2023-11-08,0.3575034374749524,3.4503422480827837,-2.889176373217352,-0.34972995052130573,0.4310606381809216
2023-11-09,0.30291731962907675,3.499453004741258,-2.864790160338547,-0.3208265817572921,0.3832464177255043
2023-11-10,0.29485618861424684,3.8140574667109237,-3.161477564130117,-0.3375352534224136,0.39009916222736046
2023-11-13,0.364584615923129,3.695708634638988,-3.0638634242461467,-0.35073943626265475,0.3543096099466849
2023-11-14,0.3745677851091277,4.050474694109466,-3.392142659641728,-0.4126571374257683,0.37975731784890204
2023-11-15,0.30704939282840304,3.682758537670273,-3.032131896834993,-0.3042405551501678,0.3465645214864846
2023-11-16,0.29839212459919334,3.7404204456179597,-3.1176209675164697,-0.2758433164411738,0.3546517137404899
2023-11-17,0.32199437124073105,3.653019307396541,-3.0654839924506447,-0.29525352102505265,0.38572383483842526
2023-11-20,0.33325556383717303,3.703371632315008,-3.153859284780926,-0.2907412224682846,0.40797331109702967
2023-11-21,0.3596908317585417,3.453179503623042,-2.927341698245956,-0.2861219879471115,0.40059335081148373
2023-11-22,0.37538377722925076,3.3236447880313924,-2.821145045204108,-0.30846228584351953,0.4305787657869845
2023-11-24,0.3787417518830884,3.327358448765278,-2.8086741330783194,-0.31189129026528717,0.41446522269524
2023-11-27,0.3653582254788599,3.4852927593086753,-3.0256164116469453,-0.30664853107552686,0.4816139579349373
2023-11-28,0.3669753237930033,3.379918552814414,-2.947113268514377,-0.30195021686176166,0.5021696087687215
2023-11-29,0.35175623800093947,3.335680423566797,-2.8952447920350006,-0.2947538839779513,0.5025620144452153
2023-11-30,0.27904540998486854,3.385778928136214,-2.9168454814129587,-0.22481823458300382,0.4768393778748797
2023-12-01,0.3079120609112816,3.383367799798304,-2.8802025525139494,-0.25070778732358434,0.4396304791279482
2023-12-04,0.2159228565446951,3.622952969589806,-3.080112888419102,-0.2090340998428042,0.4502711621274057
2023-12-05,0.20721097576038583,3.9564992725890655,-3.3902831449315722,-0.19706035089459306,0.42363324747671405
2023-12-06,0.23622602308890525,3.79574158388101,-3.2306506950255125,-0.21248323291892032,0.41116632097451783
2023-12-07,0.27840831585682174,3.290235023455832,-2.7796820907153745,-0.2066302192486859,0.4176689706514068
2023-12-08,0.2907325134108203,3.413195255965373,-2.897096846680245,-0.20513775634017714,0.39830683364422864
2023-12-11,0.3864233165487032,3.3718343917936924,-2.9299405456863536,-0.24205121393471957,0.41373405127867774
2023-12-12,0.4235683645534201,3.2274839313648416,-2.769831553839079,-0.2598722232304837,0.3786514811513005
2023-12-13,0.43192515667254455,3.0887555767504633,-2.568536712481711,-0.2688783084570218,0.3167342875157243
2023-12-14,0.36517085408614275,2.9348243156430116,-2.4366473430809457,-0.21227229224377744,0.3489244655955689
2023-12-15,0.2948265195011691,3.203930908801377,-2.6358089201064065,-0.18116877845936816,0.31822027026322874
2023-12-18,0.3890204234884166,2.9502006794743827,-2.441308476799533,-0.2190426497524574,0.3211300235891911
2023-12-19,0.5278057064310518,2.4456846117433297,-2.117438346128421,-0.24837117179147442,0.3923191997455137
2023-12-20,0.5432185485446474,2.266166969408691,-1.965612998241387,-0.22326917048752715,0.3794966507755759
2023-12-21,0.5062453165782768,2.2066491773261903,-1.8260114248520123,-0.21629380292870598,0.329410733876251
2023-12-22,0.47402136669369666,2.313778971037552,-1.8587510716062077,-0.20726398543216562,0.2782147193071249
2023-12-26,0.48946446636958063,2.20314456820897,-1.8048156573186878,-0.20371936661787177,0.31592598935800886
2023-12-27,0.5143017640803935,2.0909353300765527,-1.7441449936912468,-0.20872894351698643,0.34763684305128717
2023-12-28,0.4838387755263567,2.085169267897398,-1.6751414013304202,-0.20727582099434463,0.31340917890100994
2023-12-29,0.4586641056385803,2.187121031390721,-1.7034567059978971,-0.20067095052495862,0.2583425194935547
2024-01-02,0.49007340055154336,2.055779070818565,-1.6055382980096404,-0.20521448181691948,0.26490030845645157
2024-01-03,0.48435616762654704,2.0997186218062325,-1.6853551814657508,-0.1939261427287646,0.29520653476173586
2024-01-04,0.4810375244396106,2.128836899246599,-1.6261737652826194,-0.2173028998004719,0.23360224139688174
2024-01-05,0.48297217345674504,2.33252177353661,-1.844853297689503,-0.2200824306806327,0.24944178137678025
2024-01-08,0.48047777999043384,2.6018661407880335,-2.0817651760404514,-0.24652069880118374,0.2459419540631679
2024-01-09,0.5073570209519901,2.34126462569616,-1.8824820536960543,-0.2177294280491718,0.25158983509707583
2024-01-10,0.49685297401892625,2.579987346117119,-2.088259692675056,-0.23564226551207115,0.2470616380510819
2024-01-11,0.5685469654986139,2.373175982605621,-1.9440445458347546,-0.25351236909471275,0.25583396682523263
2024-01-12,0.5274940678787715,2.431615784735191,-1.9222207027086633,-0.25523628131260573,0.2183471314073066
2024-01-16,0.5537632698190362,2.4286646066537427,-1.9511827689633967,-0.2900535874613151,0.25880847995193257
2024-01-17,0.6438616970222898,2.5204214460380276,-2.0868133155252884,-0.34289072241086843,0.2654208948758396
2024-01-18,0.6543541904313694,2.593067762592136,-2.082108440645502,-0.36715890585478494,0.20184539347678104
2024-01-19,0.693925757364978,2.399028514086653,-1.9374732494666596,-0.38621910938998216,0.2307380874050106
2024-01-22,0.8060296623896633,2.218595643991535,-1.9467520484164562,-0.38771385031054384,0.30984059234580197
2024-01-23,0.8332054173996264,2.060071185993675,-1.728942405045257,-0.38777787319213924,0.22344367484409516
2024-01-24,0.839600323226645,2.012686347484557,-1.687327313665361,-0.40404922245562974,0.23908986540978858
2024-01-25,0.8231290823141091,2.1571664906467145,-1.7639811251761999,-0.4219694547128225,0.20565500692819863
2024-01-26,0.7933603368357489,2.267595959081014,-1.8664594426988,-0.40158674816393286,0.2070898949459701
2024-01-29,0.8099727606886323,2.2976906925880924,-1.8957484180451942,-0.4120764907922014,0.20016145556067097
2024-01-30,0.8368659473394237,1.9805690374490785,-1.6227187329343502,-0.4199691809096133,0.22525292905546143
2024-01-31,0.7826973856395245,2.175022547292692,-1.7386347184187994,-0.4276380330623665,0.20855281854894941
2024-02-01,0.8044922442525778,1.7979962409165489,-1.3516245469647976,-0.429966211508601,0.1791022733042718
2024-02-02,0.7645712146560883,1.926534387610416,-1.4609351715727945,-0.4201958718611089,0.190025441167399
2024-02-05,0.844149903318965,1.9885014432558878,-1.5547000534186088,-0.46627451794221836,0.18832322478597455
2024-02-06,0.905827185759554,2.0042271746031686,-1.6536754003013603,-0.5380562113224473,0.2816772512610852
2024-02-07,0.738338795975074,1.9989200957564772,-1.6208897200721881,-0.42292882545442095,0.30655965379505773
2024-02-08,0.8423168898907206,1.4891159274857597,-1.1689572869557148,-0.4488384848925506,0.28636295447178484
2024-02-09,0.8368275746135158,1.4976109642744073,-1.2032685080703913,-0.43547615294767333,0.3043061221301416
2024-02-12,0.816287284328336,1.715119804250294,-1.386380264616071,-0.42355841407741535,0.2785315901148564
2024-02-13,0.8261736095432375,1.5209260054047526,-1.213238582739382,-0.4107706466019802,0.2769096143933723
2024-02-14,0.8157543551035566,1.835398375050327,-1.4561398177866292,-0.4434098548487651,0.24839694248151067
2024-02-15,0.7925811877568816,1.891295352966384,-1.5021733450406944,-0.43622905203165946,0.2545258563490883
2024-02-16,0.7605429081933156,1.777162331860351,-1.4061854405812968,-0.38870265906399987,0.25718285959163023
2024-02-20,0.7402978882928218,1.8552205445099947,-1.5026676376585621,-0.39466862566005184,0.3018178305157971
2024-02-21,0.7014609421754462,1.8829127951975027,-1.5011470916533798,-0.3714885395343837,0.28826189381481476
2024-02-22,0.7490766234145853,1.769220354621133,-1.453056738637116,-0.3756658828280641,0.31042564342946166
2024-02-23,0.7791406895133556,1.4169331735905017,-1.0946171974853611,-0.3607857612219943,0.2593290956034981
2024-02-26,0.8046948602058073,1.2166972541943104,-0.9525680699744972,-0.3575067817973609,0.28868273737174
2024-02-27,0.8568855824600222,1.1139272769802386,-0.8934373908288376,-0.38878488949288437,0.3114094208814611
2024-02-28,0.8166341596219155,1.1536704016814165,-0.9168900164187819,-0.3570729826613546,0.3036584377768045
2024-02-29,0.8136262594022661,1.098691333900139,-0.8744485314414318,-0.34399989335246045,0.30613083149148745
2024-03-01,0.7830101817068809,1.2229709429188684,-0.9698632948759626,-0.32941497584376633,0.2932971460939795
2024-03-04,0.7637948205373392,1.109708473935955,-0.8459422182482633,-0.30705374158486254,0.27949266535983164
2024-03-05,0.781480421843817,0.9372399309369644,-0.7446343774106596,-0.3068478555491448,0.33276188017902286
2024-03-06,0.7309725680652541,1.1517851854068082,-0.9006531881405477,-0.3120239047021913,0.3299193393706768
2024-03-07,0.6971194516747024,1.2116524425130855,-0.9543760697438267,-0.29555558357694606,0.3411597591329849
2024-03-08,0.6751425832800383,1.2340039638353282,-1.0260834314689138,-0.26464165395912004,0.3815785383126675
2024-03-11,0.6076712330232102,1.4878972243560764,-1.240886054810621,-0.24677068280121944,0.3920882802325541
2024-03-12,0.6386313828105165,1.4586526229770567,-1.244243791813441,-0.23950468168852712,0.38646446771439497
2024-03-13,0.651549967890901,1.710217381291896,-1.5055375369783044,-0.21922982886583833,0.36300001666134596
2024-03-14,0.6538250136259227,1.9822157882014309,-1.7505977759171965,-0.23679382011428463,0.35135079420412757
2024-03-15,0.6698366724753517,1.9650547438942292,-1.744405206569155,-0.25519359422107313,0.36470738442064693
2024-03-18,0.6354895213760445,2.4560540545375247,-2.214445166402178,-0.24833956419060646,0.37124115467921504
2024-03-19,0.6574181810599378,2.352452893136117,-2.1341730554141747,-0.2524352979115386,0.37673727912965904
2024-03-20,0.6342647490756576,2.6837554330395172,-2.393051847560807,-0.23061563316613176,0.30564729861176415
2024-03-21,0.5967450017247172,2.734775676682945,-2.4021101855065172,-0.23008449192605857,0.30067399902491343
2024-03-22,0.6009294097803808,2.615788798704956,-2.3126675231241465,-0.2209929327450422,0.3169422473838519
2024-03-25,0.6606034194507975,2.5822462903118137,-2.3141291524789507,-0.20786937669483213,0.2791488194111717
2024-03-26,0.5921450879211193,3.046238072866364,-2.705599428591378,-0.1917044724972571,0.25892074030115186
2024-03-27,0.6222676524896968,2.878363960098268,-2.5745462431586166,-0.2275649600431449,0.3014795906137966
2024-03-28,0.5588155535431718,2.7800971106386676,-2.428676370499356,-0.19714728408477425,0.28691099040229096
2024-04-01,0.5454127773687355,2.821257160478389,-2.4710957523825914,-0.18676331202389865,0.2911891265593653
2024-04-02,0.5784819692430634,2.7443350870407652,-2.451011102999183,-0.21293307796733446,0.34112712468268874
2024-04-03,0.5437325862174384,2.9470334404673517,-2.609893743898807,-0.22318549704091953,0.34231321425493705
2024-04-04,0.5401776412895242,2.990679119251705,-2.6827160483796644,-0.2366030122046362,0.3884623000430711
2024-04-05,0.5048129764522942,3.1539037363225093,-2.8053696295911528,-0.22573414722615015,0.3723870640424992
2024-04-08,0.5153957260056989,3.3431574148706598,-2.9858360496592726,-0.22481086939333605,0.3520937781762497
2024-04-09,0.5031071395176573,3.4646185157078797,-3.1430792030715873,-0.20443185482905696,0.379785402675107
2024-04-10,0.44313193573202764,3.5766721720732786,-3.2124993012562952,-0.1885313216332419,0.3812265150842306
2024-04-11,0.4983209088402579,3.4665312412729783,-3.1291739735150172,-0.24028594215123536,0.4046077655530163
2024-04-12,0.5139973739329646,3.395314891770634,-3.0746054638562197,-0.24661913531555554,0.41191233346817646
2024-04-15,0.4905323987469819,3.560078292287682,-3.160689768911721,-0.2506955843720325,0.3607746622490897
2024-04-16,0.4935965345686569,3.583848586759142,-3.2364199538329594,-0.2610972103340948,0.42007204283925575
2024-04-17,0.4447634185559985,3.616131250108883,-3.257502244950333,-0.2422245546791879,0.4388321309646392
2024-04-18,0.4298670886130907,3.4554037260344694,-2.9993055239709303,-0.2722283189995586,0.3862630283229293
2024-04-19,0.42822685986113657,3.537767175531502,-3.100277465267258,-0.26833693168780026,0.4026203615624197
2024-04-22,0.3957679351789894,3.56529728314384,-3.1160330437122776,-0.26001223009636587,0.4149800554858142
2024-04-23,0.4317528990838984,3.6676998612048943,-3.206666364082886,-0.2509397290636878,0.3581533328577808
2024-04-24,0.4336517447894622,3.5572615485776633,-3.101403184415731,-0.2471633319191558,0.35765322296776136
2024-04-25,0.4442066722275467,3.6705638927844784,-3.2473772816577187,-0.24141534395334463,0.3740220605990384
2024-04-26,0.46039863308589074,3.937375214654164,-3.543518549609203,-0.2343724339129407,0.3801171357820891
2024-04-29,0.4655122451208265,3.74854612640283,-3.3546181966379427,-0.23070771657002212,0.3712675416843077
2024-04-30,0.4594480966243126,3.6410585559450537,-3.2316055121223033,-0.23084117978647406,0.3619400393394105
2024-05-01,0.4018389328461584,4.289005998467844,-3.7872532856945074,-0.2425760184561977,0.3389843728367028
2024-05-02,0.3459713390818304,4.162205881492147,-3.5983762193346913,-0.22595755265533482,0.3161565514160491
2024-05-03,0.37378904051553097,4.331646298293714,-3.787981257886777,-0.2032308309199668,0.285776749997499
2024-05-06,0.3986628167390534,4.3420902681240365,-3.7967294867469605,-0.2025674726213298,0.2585438745052008
2024-05-07,0.4233644159597747,4.2128605637261085,-3.6508473173240814,-0.22339200076875163,0.23801433840695016
2024-05-08,0.39727397279889004,4.165079947940773,-3.587730393578113,-0.21874849031296076,0.24412496315141044
2024-05-09,0.3805046416145113,4.182227450661411,-3.570754141925383,-0.21805958775832218,0.22608163740778203
2024-05-10,0.39653861483993513,4.017381014027634,-3.453863610312976,-0.20245554658819473,0.24239952803360168
2024-05-13,0.4059968174323246,4.122134290743925,-3.5898651716561067,-0.2103197575374202,0.2720538210172772
2024-05-14,0.41771922064264927,4.162226228572333,-3.661277767469855,-0.1961076437339413,0.27743996198881393
2024-05-15,0.3930235035896107,4.047256772744657,-3.512591969846639,-0.19191277015854394,0.2642244636709161
2024-05-16,0.36976013251938356,3.9840847380325823,-3.4245548407416133,-0.18247038078476238,0.25318035097441005
2024-05-17,0.3621321505637761,3.972939587368358,-3.4407831969340457,-0.1612303862199865,0.26694184522189796
2024-05-20,0.367346333380738,3.882389949772878,-3.3857871452966966,-0.16830299186497424,0.3043538540080551
2024-05-21,0.34008656115376734,3.8600217736411957,-3.3566811983977813,-0.1638794747970031,0.3204523383998216
2024-05-22,0.35870716809721054,3.7310009386550913,-3.223025297072417,-0.17024435825695677,0.303561548577072
2024-05-23,0.3782171939494243,3.717067047765108,-3.1821695576024513,-0.188477479945366,0.27536279583328493
2024-05-24,0.4073049574931592,3.795065212269681,-3.2404373232494237,-0.20486966368457346,0.24293681717115678
2024-05-28,0.41328993665305147,3.692543890547537,-3.1630030772803144,-0.1900224720778918,0.24719172215761764
2024-05-29,0.4154538093934827,3.6192414626134175,-3.1192110719565047,-0.19371044137197532,0.27822624132158
2024-05-30,0.37023824711870623,3.949382381312666,-3.3894455557636634,-0.19516711264097983,0.2649920399732709
2024-05-31,0.34034117768243344,4.116675034468271,-3.547676048042638,-0.17369086376787102,0.26435069965980473
2024-06-03,0.4004234243874471,3.9097768699878293,-3.394418289679007,-0.17284404326756372,0.257062038571294
2024-06-04,0.3776898520155507,3.9195412413761033,-3.380427028643506,-0.17088819223607923,0.254084127487931
2024-06-05,0.3709895765851041,3.658039716788145,-3.091577658943767,-0.18528532457692026,0.24783369014743858
2024-06-06,0.39187591684015904,3.534528830650841,-2.98332326900214,-0.18866869585897822,0.24558721737011857
2024-06-07,0.39083983765993874,3.5268257904064586,-2.9782966288192108,-0.19471321644312603,0.25534421719593964
2024-06-10,0.45693869806608306,3.4449437945791948,-2.8781080298006314,-0.24049470493998631,0.21672024209533994
2024-06-11,0.4416672330127375,3.650640643501501,-3.0873113900000235,-0.22445441591943346,0.2194579294052183
2024-06-12,0.45889798459149467,3.392046643338288,-2.8407084853711804,-0.2336016059911277,0.22336546343252506
2024-06-13,0.4506193825641772,3.350001362780745,-2.7983349568966682,-0.2262294921655987,0.22394370371734482
2024-06-14,0.44494102544790864,3.1251898762187564,-2.544209209583587,-0.23336513182898302,0.2074434397459049
2024-06-17,0.4523793947097954,3.0166866738289175,-2.457668065616236,-0.24070337780515313,0.22930537488267627
2024-06-18,0.4760550045907991,3.105929960818944,-2.5682883352499766,-0.24663513720216482,0.2329385070423977
2024-06-20,0.48055898975040573,2.9196855961453005,-2.377695203044632,-0.25024952356888125,0.22770014071780703
2024-06-21,0.46855658028691416,3.008154939208995,-2.5074816165230387,-0.23425850790531016,0.26502860493244007
2024-06-24,0.5009436046051529,2.946464683501348,-2.4658754276608748,-0.23093569417098056,0.24940283372535418
2024-06-25,0.436623718256323,3.0483151915906674,-2.548520569067858,-0.19582952174854015,0.25941118096940796
2024-06-26,0.4894125691054776,2.94437702277424,-2.484580321593663,-0.2040589718386681,0.25484970155261355
2024-06-27,0.5159445615462296,3.0693005838831637,-2.571687863065189,-0.24481467263441234,0.23125739027020784
2024-06-28,0.4971835888874886,2.9718107433291374,-2.4798160527540003,-0.24323630369474142,0.25405802423211565
2024-07-01,0.5128141944077892,3.0949835491483104,-2.666983477314065,-0.22803268159498424,0.2872184153529493
2024-07-02,0.5048944605062661,3.021069380402363,-2.5568137417090266,-0.24874956139408635,0.279599462194484
2024-07-03,0.49740153759473965,3.0248683690592406,-2.54673659583452,-0.24695790853507976,0.27142459771562005
2024-07-05,0.5334192204056417,2.65219439449443,-2.193202074300654,-0.27341265747626214,0.2810011168768446
2024-07-08,0.5009366887407275,2.6150062491368145,-2.111469018413601,-0.2738440374771499,0.26937011801320837
2024-07-09,0.5104831592446654,2.479801039712237,-1.9584017582914641,-0.27102753611812436,0.23914509545268609
2024-07-10,0.539652063625566,2.3603000913334093,-1.8624966688476967,-0.2770887964354023,0.23963331032412366
2024-07-11,0.5222036420246942,2.5668501917922644,-2.0558876368709833,-0.26862066439392884,0.23545446744795373
2024-07-12,0.4581409797506259,2.6267295752267144,-2.117728021444311,-0.23167421450059453,0.264531680967565
2024-07-15,0.45170263191888366,2.792325162135839,-2.275902779362233,-0.22262018165620046,0.25449516696371083
2024-07-16,0.4674533353873403,2.90210441743963,-2.440318400287547,-0.21493802176770613,0.28569866922828296
2024-07-17,0.43317669754437127,2.87833661626049,-2.3881294827522095,-0.20603273396331867,0.28264890291066685
2024-07-18,0.36054146102405155,3.1943143992246688,-2.6689524518631855,-0.16767473138987476,0.28177132300433966
2024-07-19,0.33853403520814884,3.3800852886270856,-2.8328622766776124,-0.1600523264490383,0.27429527929141617
2024-07-22,0.3207155037456543,3.6507652319357993,-3.0658958334396464,-0.15988352694924723,0.2542986247074402
2024-07-23,0.3686644834743762,3.3134029673872334,-2.7703153019961517,-0.16662119469867487,0.2548690458332167
2024-07-24,0.3810191353504,3.209500647550909,-2.686638192817949,-0.17582298050206943,0.271941390418709
2024-07-25,0.3222943208832473,3.340868924096352,-2.7711388448810688,-0.1867890826015658,0.2947646825030353
2024-07-26,0.28183755240853164,3.519977756073542,-2.878200074181413,-0.17386922442839498,0.25025399012773425
2024-07-29,0.31855869631096423,3.3221404069729674,-2.73088197659584,-0.1717453005803328,0.26192817389224116
2024-07-30,0.3043300124430139,3.094744381203461,-2.510163526430011,-0.1510783462586045,0.26216747904214077
2024-07-31,0.2890121143045234,3.0435857760682175,-2.4941703514908475,-0.1305860045826049,0.2921584657007117
2024-08-01,0.329159056764518,2.7637093573076164,-2.232417054044992,-0.1589176979841457,0.29846633795700356
2024-08-02,0.21174080188159822,3.1525866119445265,-2.4943342212365125,-0.13183609339120503,0.2618429008015927
2024-08-05,0.18869955928388743,2.8854757694049664,-2.174921946462411,-0.1371567082162137,0.23790332598977026
2024-08-06,0.12900198534165985,2.955123943172669,-2.1555173079299452,-0.14682681507630865,0.21821819449192514
2024-08-07,0.13652289795724049,3.2615108110621667,-2.511687163935291,-0.10928646139985244,0.22293991631573604
2024-08-08,0.12981132327544512,3.2089034708471185,-2.46305060945132,-0.11804545011689194,0.2423812654456486
2024-08-09,0.13533529977707956,3.4225585700536936,-2.7047162492341617,-0.10766600641701961,0.2544883858204076
2024-08-12,0.15953952722507572,3.271820694642086,-2.571560975703633,-0.1152093478270895,0.25541010166356054
2024-08-13,0.15554437878924648,3.1105332290924212,-2.3964614805615194,-0.12642461673614452,0.2568084894159959
2024-08-14,0.19393307007038355,2.8280979840673117,-2.1267901929725777,-0.13853479892808696,0.24329393776296937
2024-08-15,0.18366980081714565,2.8528354252123207,-2.1409382621744038,-0.12933660006356731,0.23376963620850486
2024-08-16,0.2073037039327303,2.9003683300986536,-2.20283671478329,-0.12946310966552743,0.22462779041743364
2024-08-19,0.21559021685620802,2.7576511696381156,-2.0852651954618096,-0.12735103512528761,0.23937484409277343
2024-08-20,0.24288573461524424,2.6184576632598255,-1.9713717023446993,-0.124135752761742,0.23416405723137168
2024-08-21,0.24013043097446743,2.615582902381648,-1.9637729068528,-0.12818098269455103,0.23624055619123568
2024-08-22,0.22374185745899586,2.6117713358587236,-1.9416380729111111,-0.11736877851589454,0.22349365810928606
2024-08-23,0.22566920681736877,2.62998375613755,-1.9744563560263826,-0.10521859907048672,0.22402199214195062
2024-08-26,0.22518328828268758,2.6748561717671437,-2.035443021010441,-0.09666032350675763,0.23206388446736712
2024-08-27,0.25706509726660026,2.4692073695618655,-1.8560813640986527,-0.10436247720847575,0.23417137447866251
2024-08-28,0.22952122196397393,2.628313332666977,-1.9923887460620455,-0.09870596342656958,0.23326015485766413
2024-08-29,0.21869396662709567,2.7033358187773375,-2.051047119033181,-0.1013581575764157,0.2303754912051633
2024-08-30,0.20975510737332423,2.802533323011061,-2.1527077224689877,-0.1013829518766756,0.24180224396127795
2024-09-03,0.213949051932116,2.892708942607066,-2.241176979756788,-0.0954324249936973,0.2299514102113035
2024-09-04,0.1619813774304434,2.9300719347069686,-2.2542447256712066,-0.07134215096803963,0.2335335645018345
2024-09-05,0.15234477155565243,2.8158512596550747,-2.1046113175485153,-0.07917891151612816,0.21559419785391667
2024-09-06,0.13247117843127298,2.8342423641196857,-2.10412761131354,-0.07671367902748608,0.21412774779006702
2024-09-09,0.11407081764368604,2.807528911227266,-2.065753814636823,-0.06935415228754181,0.21350823805341207
2024-09-10,0.14115196934858917,2.7079330850978724,-1.99269862695093,-0.07337021936807878,0.21698379187254718
2024-09-11,0.14424066998207744,2.5740444173141106,-1.8828827597304751,-0.05868139983061082,0.22327907226489815
2024-09-12,0.15370459876552348,2.5396916696697867,-1.8455057919996283,-0.0645398228164042,0.21664934638072247
2024-09-13,0.15854526775147929,2.603702425699871,-1.9246236689342686,-0.0678487119417556,0.23022468742467372
2024-09-16,0.15279067086303372,2.5765649090393015,-1.9236365607720813,-0.049755039860525575,0.24403602073027195
2024-09-17,0.14865798699157912,2.551455010453038,-1.8710290235737788,-0.0655084456289986,0.23642447175816056
2024-09-18,0.17723366542543628,2.473788626222178,-1.7873545235547597,-0.07928764152757813,0.2156198734347236
2024-09-19,0.1717593023865321,2.5538373061096364,-1.8746627577195145,-0.06373121814574116,0.21279736736908714
2024-09-20,0.18744684795002886,2.4685302262657536,-1.7982276182363555,-0.0713697931716177,0.21362033719219076
2024-09-23,0.21416095468718685,2.293579877966645,-1.64935861898811,-0.08402843268709723,0.22564621902137552
2024-09-24,0.2161084119092175,2.20234208760641,-1.5906331187436669,-0.048818416932767776,0.22100103616080716
2024-09-25,0.22672263944190169,2.1168077339081597,-1.5402324487577175,-0.04024851759436622,0.23695059300202234
2024-09-26,0.18410137565521317,2.387446224036721,-1.743909291134795,-0.04954017592085816,0.22190186736371909
2024-09-27,0.19277667828478956,2.443379849256766,-1.8090333629126998,-0.04804043483610089,0.2209172702072455
2024-09-30,0.18796925288796043,2.332059433879125,-1.692592278905282,-0.0461453988267722,0.21870899096496857
2024-10-01,0.19915292785586702,2.2851869591245477,-1.671874664512564,-0.039546693128415696,0.22708147066056494
2024-10-02,0.17136162028919819,2.4302346789665252,-1.7855259796663305,-0.051244524510212816,0.2351742049208202
2024-10-03,0.14989783401547518,2.4674534676128563,-1.8145992701982883,-0.03909938704963242,0.23634735561958892
2024-10-04,0.15377695086654142,2.4897940308397857,-1.8249838521834116,-0.039364694738229,0.22077756521531386
2024-10-07,0.165793200280633,2.537277451177098,-1.8931304970983733,-0.04156328609377625,0.23162313173441898
2024-10-08,0.15144119675664694,2.6908758877122896,-2.029910042979113,-0.0468452635375437,0.23443822204772022
2024-10-09,0.14949143511168964,2.689094401963712,-2.0060295575343186,-0.0508982287202487,0.2183419491791654
2024-10-10,0.1584226937589246,2.7943496827993446,-2.1191972309042377,-0.04829279658757397,0.21471765093354236
2024-10-11,0.16223196003934756,2.703902565262641,-2.0335590570627593,-0.05817049348343221,0.22559502524420313
2024-10-14,0.16843520655686495,2.711349442396707,-2.0520311881922177,-0.06071667969157226,0.23296321893021765
2024-10-15,0.1641997763851183,2.699144416539634,-2.020767498603259,-0.05572976149981072,0.21315306717831714
2024-10-16,0.14910262685233605,2.80082451911815,-2.1063658639112366,-0.040013508992112486,0.1964522269328637
2024-10-17,0.12367995584170793,2.872442077980109,-2.1402298196695217,-0.04755830424622521,0.19166609009393049
2024-10-18,0.13989756193033678,2.6986032373596407,-1.9801405318563539,-0.05636709778645707,0.1980068303528334
2024-10-21,0.15125581744226257,2.632494202843817,-1.9220528540868886,-0.04444774955513589,0.1827505833559444
2024-10-22,0.17573759083820734,2.5317409532395594,-1.8451794687812706,-0.04349402689193836,0.18119495159544224
2024-10-23,0.17501026166360084,2.6954490273782548,-2.0134892901304604,-0.03827449021037084,0.1813044912989759
2024-10-24,0.16544306404854195,2.756703312974529,-2.108329595458434,-0.002475226781237272,0.18865844521660063
2024-10-25,0.1750133487812117,2.6361032771728414,-2.0050864349509503,-0.006134342029104404,0.2001041510260018
2024-10-28,0.19684987228222797,2.474499790952945,-1.8470686904603237,-0.007905172976200978,0.18362420020135176
2024-10-29,0.23984738347529033,2.382104540557831,-1.7896290481752843,-0.022575772349998243,0.19025289649216148
2024-10-30,0.21526353368348342,2.6344340686305157,-2.009191556077832,-0.014046643619637521,0.17354059738347066
2024-10-31,0.18758060973067198,2.7093473024087924,-2.072633786613749,-0.00943537604232825,0.18514125051661276
2024-11-01,0.15838880121627766,2.8315078375461424,-2.1375393721920277,-0.028755922249214385,0.1763986556788226
2024-11-04,0.16593087383028335,2.9105125602082387,-2.23587517890425,-0.029333837735801255,0.18876558260152976
2024-11-05,0.15125253430634764,2.9199948179899176,-2.2336299432319944,-0.03155867011550027,0.1939412610512291
2024-11-06,0.14173581692680381,3.0952539141004887,-2.389277133746002,-0.03958250911210822,0.19186991183081833
2024-11-07,0.18070795270634982,3.0428821384877667,-2.336947533167128,-0.0522610702341457,0.16561851220715731
2024-11-08,0.17726267689671155,3.041644351369328,-2.3559578906117076,-0.040628816315255396,0.1776796786609237
2024-11-11,0.17976321748860735,3.041293641074016,-2.3786456403639886,-0.027349307998585627,0.18493808979995058
2024-11-12,0.19187432427121745,2.9627104550963494,-2.269311956074853,-0.02577019535716784,0.14049737206445398
2024-11-13,0.20384803938157744,2.936191634534712,-2.26783305528034,-0.03173366281255807,0.15952704417660837
2024-11-14,0.20407824229496058,2.9619882827845205,-2.2954478320057827,-0.015307994192925499,0.14468930111922718
2024-11-15,0.19810023049485148,3.115791947547103,-2.4221261189291496,-0.04646613972204233,0.15470008060923734
2024-11-18,0.16917599762608918,3.1189642078398574,-2.3895762535862737,-0.04856803434382953,0.1500040824641566
2024-11-19,0.17486816827428395,3.130159065068727,-2.4370331183556364,-0.03440806026463862,0.16641394527726375
2024-11-20,0.1961633595263991,2.9317591437398614,-2.279590964039775,-0.030363524476272972,0.18203198524978711
2024-11-21,0.18865988159498306,2.9850921716863623,-2.336235542397213,-0.03408043789274363,0.19656392700861142
2024-11-22,0.1999290839444976,2.9523036490653745,-2.3314593747895858,-0.01764562096013975,0.1968722627398533
2024-11-25,0.20842893071264024,2.8310239051621955,-2.243099450199755,-0.016056045365074635,0.21970265968999425
2024-11-26,0.19835235227095463,2.740376885806181,-2.0636480915093367,-0.019479039152474346,0.14439789258467503
2024-11-27,0.20799177024244678,2.8610733304495555,-2.203553942246703,-0.011579685168789855,0.14606852672349088
2024-11-29,0.21838819032957646,2.7494929469537035,-2.1100693506298267,-0.0031478021679370635,0.1453360155144838
2024-12-02,0.23439853044673778,2.680402913535622,-2.0483217787859407,-0.01841258984299266,0.15193292464657313
2024-12-03,0.24343386841214515,2.5697139394964372,-1.9057548439733358,-0.05049078362601609,0.14309781969076904
2024-12-04,0.2588346957876994,2.6238887831345514,-1.966312365140743,-0.06390502187934355,0.1474939080978359
2024-12-05,0.2565891958524513,2.5003806992182467,-1.8179865159957007,-0.09885239798127782,0.15986901890628052
2024-12-06,0.2678894701767703,2.508513940076913,-1.8539623302310322,-0.08905457564567176,0.16661349562302058
2024-12-09,0.2623301485359842,2.6163577395413875,-1.9479971812065726,-0.08745829128160844,0.15676758441080949
2024-12-10,0.261092802559824,2.580142287042985,-1.9431641855702462,-0.07894766430045638,0.18087676026789362
2024-12-11,0.23865773295703285,2.5575797262662916,-1.8975485689606142,-0.09718696288356257,0.19849807262085215
2024-12-12,0.24099830594705787,2.545150513278179,-1.9011907334318014,-0.10485244782139205,0.2198943620279568
2024-12-13,0.2770575229792348,2.375043503746267,-1.7963548705195813,-0.09431677236524676,0.2385706161593262
2024-12-16,0.2987423279340178,2.5870414435997984,-2.0143526587301546,-0.11015047468942278,0.23871936188576115
2024-12-17,0.33808308893738137,2.5299681172391018,-1.971501916556064,-0.1508204805061831,0.25427119088576444
2024-12-18,0.26811024065074074,2.9057982015398336,-2.287741092888934,-0.12329585906652434,0.237128509764884
2024-12-19,0.23611195400440746,3.241020589510558,-2.550517558420842,-0.17076271208436028,0.24414772699023732
2024-12-20,0.20961301171415908,3.518946419984386,-2.779308856685465,-0.18211087079304666,0.23286029577996664
2024-12-23,0.2612566989129749,3.3235672298877157,-2.6786764569911767,-0.1615314047857604,0.2553839329762468
2024-12-24,0.27831616047202756,3.3361225949990176,-2.7061704887699483,-0.16444514680440492,0.25617688010330797
2024-12-26,0.26502737606541493,3.396358073152156,-2.7313797878792654,-0.16133259943675518,0.23132693809845004
2024-12-27,0.28354881434308443,3.277913754713797,-2.6375465243070515,-0.1697183195406776,0.24580227479084754
2024-12-30,0.2729121638755633,3.6224801752159013,-2.977933305286024,-0.17495769249086732,0.25749865868542704
2024-12-31,0.2780393466765567,3.2340778935383176,-2.5676164522415883,-0.20503404286991672,0.26053325489663043
2025-01-02,0.25641557059530495,3.3216694499520205,-2.678981497435536,-0.17146259250006946,0.27235906938828036
2025-01-03,0.21568400817309943,3.379863590429086,-2.641117198398713,-0.1933581032768335,0.23892770307336164
2025-01-06,0.20940417171276274,3.59232328309862,-2.8923706730558756,-0.13819934869456532,0.22884256693905808
2025-01-07,0.25097972002415153,3.2723295839622364,-2.5820371599310894,-0.1668855884164467,0.2256134443611479
2025-01-08,0.23376125482176008,3.3482677889834815,-2.652899309447528,-0.16947663982450983,0.2403469054667966
2025-01-10,0.23913230433772012,3.2749968764417745,-2.6048959714602016,-0.18510616336992478,0.27587295405063156
2025-01-13,0.2187781335095073,3.4688066399856368,-2.7911302653349925,-0.19285970487040757,0.296405196710256
2025-01-14,0.17562944629640423,3.73903840195614,-3.0242363031997077,-0.16035105608270905,0.26991951102987255
2025-01-15,0.19628296498257472,3.728876082226048,-3.0912914612141473,-0.14211365349517008,0.3082460675006948
2025-01-16,0.21447099441759818,3.523733988154329,-2.8557994885244047,-0.1567524703488032,0.2743469763012804
2025-01-17,0.16126784966651542,3.514635239864047,-2.8045670282742776,-0.12117964559726485,0.24984358434098008
2025-01-21,0.1955385561033837,3.2587354858346935,-2.598931707765703,-0.11312212633833318,0.2577797921659585
2025-01-22,0.18848512458981895,3.201148224533486,-2.557298231865089,-0.09419991446278404,0.26186479720456846
2025-01-23,0.19328022249067253,3.193414436502981,-2.530654056855761,-0.12378314035676342,0.2677425382188709
2025-01-24,0.1799546890486837,3.4064702273280627,-2.7359251312362396,-0.11698237439098658,0.2664825892504796
2025-01-27,0.15396564362242146,3.4525977185537133,-2.7588375643289456,-0.10383648928445836,0.2561106914372691
2025-01-28,0.09768229068226726,3.54868390770429,-2.8173420096326556,-0.06442715441174225,0.2354029656578405
2025-01-29,0.12970068388754052,3.3959926020232385,-2.6918245625057495,-0.08993556982543881,0.25606684642040883
2025-01-30,0.12582708212579938,3.4097200880416527,-2.6843777627882743,-0.10042092589306975,0.24925151851389185
2025-01-31,0.10896199008278484,3.573744032070555,-2.85104285913496,-0.08885050370906376,0.25718734069068383
2025-02-03,0.12229577540508109,3.494422960037118,-2.8319916104073055,-0.07759982208357465,0.292872697048681
2025-02-04,0.09700173044011934,3.9741257440077113,-3.282784493011079,-0.05726883201020849,0.26892585057345625
2025-02-05,0.1064579685728013,3.9494611738046617,-3.2687885084624333,-0.06975132563429191,0.2826206917192623
2025-02-06,0.0890479184826283,3.6941657637805054,-3.000641179942215,-0.05799804760896067,0.2754255452880414
2025-02-07,0.08535415333813288,3.5558374917844886,-2.859261063689048,-0.041124338394656436,0.25919375696108277
2025-02-10,0.0873377676100918,3.622380744974526,-2.9612319913645346,-0.041517934532527286,0.2930314133124445
2025-02-11,0.06243227835463772,3.727007971925856,-3.0316166275148704,-0.041929489812005,0.28410586704638147
2025-02-12,0.06087083521511816,3.740460606044649,-3.0267989998001945,-0.0482222574670908,0.2736898160075186
2025-02-13,0.05921223672808888,3.7873830161094415,-3.0933942337960576,-0.05098497867287418,0.29778395963140164
2025-02-14,0.06389191999332414,3.6820788733240284,-2.9790306939568314,-0.05347249402136559,0.286532394660844
2025-02-18,0.07334656481748532,3.395314193647527,-2.6534017702527843,-0.057327238732531184,0.24206825052030298
2025-02-19,0.07364075161768724,3.4149455430254325,-2.7118954660797843,-0.05186599701288424,0.2751751684495487
2025-02-20,0.07728824683138259,3.432814223559522,-2.704299727262866,-0.07316298152934418,0.2673602384013056
2025-02-21,0.07608264361655293,3.3223952815690265,-2.5994225601110936,-0.062152334981991415,0.26309696990750553
2025-02-24,0.060024733961012544,3.3422916607150985,-2.580848002026984,-0.07017939168951677,0.2487109990403895
2025-02-25,0.04598276082257999,3.3582711049919234,-2.5664552643455525,-0.07513419301551386,0.23733559154656278
2025-02-26,0.017085640606650434,3.339409168463414,-2.5238415273848718,-0.05805070283787868,0.22539742115268635
2025-02-27,0.024134758239249675,3.2808651774018793,-2.4756245026765047,-0.060821145134724156,0.23144571217010024
2025-02-28,-0.009902754893617624,3.475628171276397,-2.6532581269109565,-0.03170520301945334,0.21923791354763028
2025-03-03,0.015930710467162625,3.244956987427194,-2.4313745285028983,-0.03708597401854607,0.20757280462708763
2025-03-04,-0.008095604344376957,3.377008854007906,-2.5422766500767553,-0.03916742588019176,0.21253082629341827
2025-03-05,-0.024847285844291724,3.5130375411770025,-2.660057810854507,-0.04764287499089639,0.2195104305126924
2025-03-06,-0.0223537774002772,3.6188492222478597,-2.778234686245243,-0.0389620962938079,0.22070133769146863
2025-03-07,-0.028031710898077038,3.6961665527094305,-2.7952073510578703,-0.07019744143413989,0.19726995068065686
2025-03-10,-0.014199264057396766,3.661510891927418,-2.8036928505158967,-0.05459691068557764,0.21097813333145315
2025-03-11,-0.050389464016900525,3.7664184920439427,-2.851868772258904,-0.05973187380595236,0.19557161803781442
2025-03-12,-0.06605499237733249,3.795166212578028,-2.892287923836148,-0.06005119350637408,0.22322789714182614
2025-03-13,-0.03894225100526579,3.6656590374609612,-2.785704990817676,-0.07718436492002778,0.2361725692820085
2025-03-14,-0.04599430942085426,3.635206121577873,-2.738037296584675,-0.08687179162610062,0.23569727605375684
2025-03-17,-0.04503622881530582,3.5620731903481464,-2.7000241741029356,-0.0670759276204359,0.25006314019053094
2025-03-18,-0.04587954977058789,3.5645624225864236,-2.7068349334823747,-0.05108074947151384,0.23923281013805273
2025-03-19,-0.05839914733507406,3.5168843368971126,-2.6447281368261173,-0.04428552471549826,0.23052847197957668
2025-03-20,-0.033675227032619014,3.2869198736748664,-2.4375700481168487,-0.05185227359358919,0.23617767506819062
2025-03-21,-0.04088700891226512,3.2452157259772276,-2.390933878909863,-0.05071977407950019,0.2373249359244012
2025-03-24,-0.037375632306700234,3.2212671106364574,-2.3719478084236476,-0.0581753871517716,0.24623171724566198
2025-03-25,-0.03362273374096072,3.3734844064593426,-2.5371897930373444,-0.04344898547426698,0.24077710579322972
2025-03-26,-0.017983041930911766,3.194174578615057,-2.3651115182603477,-0.06476642639693225,0.2536864079731349
2025-03-27,-0.058158576643943485,3.443487132447441,-2.6430145147046047,-0.02577535826927588,0.2834613171703829
2025-03-28,-0.05914679974235475,3.3855764443089136,-2.5934989648000006,-0.02326071739383098,0.2903300376272724
2025-03-31,-0.07953462661549829,3.3545311190036364,-2.548287918582645,-0.017235682793739708,0.2905271089882462
2025-04-01,-0.07305740464121648,3.2804341376605146,-2.4778598943362873,-0.03374483938784706,0.3042280007048363
2025-04-02,-0.06468654461395637,3.3942644271970863,-2.538066392642416,-0.049153738603021406,0.2576422486623076
2025-04-03,-0.05428114069530788,3.1903260800724746,-2.351539286419394,-0.0341058674007375,0.2496002144429644
2025-04-04,-0.07967672081623856,2.7800506550660837,-1.921438657652026,-0.05012995138186981,0.27119467478405085
2025-04-07,-0.1331396665598967,3.154960320805764,-2.1995432915435815,-0.06767224905597798,0.2453948863536921
2025-04-08,-0.1125914082982792,2.42600914451673,-1.584135858745588,-0.11038128549925073,0.3810994080263877
2025-04-09,-0.12508714005298058,2.346601238963936,-1.4627407243185586,-0.14717266113720853,0.3883992865448119
2025-04-10,-0.023714761200624334,2.1940506342124,-1.366521364644562,-0.14912098771753077,0.3453064793503168
2025-04-11,-0.045403364355172574,1.9062429969643917,-1.1507279933370271,-0.18409099536032728,0.4739793560881353
2025-04-14,-0.08269124569927874,2.46531446364031,-1.6538295802026286,-0.09947187365367102,0.37067823591526844
2025-04-15,-0.06474356929624926,1.9013059660594622,-1.1250752430552324,-0.07475508677338345,0.36326793306540295
2025-04-16,-0.07178595212353477,2.0559126783820814,-1.2959918562897117,-0.059364347124149716,0.3712294771553148
2025-04-17,-0.08069225159162617,2.122596127728476,-1.3345493338565917,-0.04422170512092303,0.3368671628406649
2025-04-21,-0.1023120078687025,1.8749137576996877,-1.1476346438505494,0.014040476803972655,0.36099241721559167
2025-04-22,-0.1413056210692137,1.876270422758672,-1.2332304446691678,0.03558339597573359,0.462682247003976
2025-04-23,-0.09971778321363627,1.8620232613915677,-1.1872540720633717,0.03303903923013729,0.3919095546553031
2025-04-24,-0.05384243147189881,2.0938973267582908,-1.3435981795498693,-0.00841571776130815,0.3119590020247855
2025-04-25,-0.04040183081779613,2.022653945642054,-1.2771679459516054,-0.03764483940421747,0.33256067053156496
2025-04-28,-0.029714077456640637,1.968928821900373,-1.2031867966084555,-0.05411024780231898,0.3180822999670421
2025-04-29,-0.024392893899069942,1.8414720666029676,-1.075800524561216,-0.05791180373042901,0.3166331555877474
2025-04-30,-0.0004685455035296378,1.5206476938754452,-0.7627115570070174,-0.05511105762639787,0.29764346626149973
2025-05-01,0.014558618390657347,0.8939004895513321,-0.21098312623566887,-0.0351195262084113,0.3376435445020907
2025-05-02,0.008584855569139271,1.2676064041873747,-0.5568096949498317,-0.03705108703395536,0.31766952222727296
2025-05-05,0.028914241170127638,1.0164516678203637,-0.38768893342910704,-0.00817469073644599,0.3504977151750617
2025-05-06,0.02944339387268866,0.8747599957566898,-0.29789422849838726,-0.0010084648128865373,0.3946993036818954
2025-05-07,0.020252970379033723,0.9501852951147007,-0.37712276156593827,-0.021237117844738262,0.42792161391694206
2025-05-08,0.032289444715374184,0.5799410678010575,-0.05738310751846804,-0.013335872190910605,0.4584884671929471
2025-05-09,0.005539795208053669,1.209913552998827,-0.6367258677105566,-0.004718385455770294,0.4259909049594465
2025-05-12,-0.004808132627384698,1.3913365297937281,-0.8093166443100523,-0.010715596922756065,0.433503844066465
2025-05-13,0.04041352252283821,1.5325740549272617,-0.932066951369134,-0.018176666758942972,0.3772560406779771
2025-05-14,0.07365540786384205,1.6329637447334986,-0.9843994843991909,-0.08210517742182037,0.35988550922367074
2025-05-15,0.0915727818754659,1.603676765087665,-0.9307289381776042,-0.09682047050236128,0.33229986171683445
2025-05-16,0.0715859383447948,1.7244608695592363,-1.0423325600044613,-0.08453636625679778,0.330822118357228
2025-05-19,0.07241503143914224,1.730884282266884,-1.0542891082950838,-0.06869104945893142,0.319680844047989
2025-05-20,0.06689004972807411,1.8328581950706726,-1.1764369460327844,-0.07338024835610303,0.35006894959014073
2025-05-21,0.08959434196240446,1.468660066795499,-0.8702478524201605,-0.08521323447382148,0.3972066781360787
2025-05-22,0.08070026700033751,1.720916019493441,-1.0793959475508257,-0.11911461530478724,0.3968942763618344
2025-05-23,0.08894490397395646,1.5590203620598777,-0.8938086178278316,-0.12083724913663396,0.36668060093063143
2025-05-27,0.07726402748826915,1.4725530273157348,-0.8451606391981541,-0.11076303439644174,0.406106618790592
2025-05-28,0.07867014158432854,1.4964681202160943,-0.854373019550947,-0.08233748988271568,0.3615722476332399
2025-05-29,0.0541580386499064,1.4550914884158077,-0.8627428354340622,-0.034946265189218964,0.388439573557567
2025-05-30,0.03687739690725483,1.5279431991335721,-0.9245562743687825,-0.02053158220053012,0.38026726052848553
2025-06-02,0.03413282902916723,1.5361282076005125,-0.8756232765050307,-0.021773059964720506,0.32713529984007134
2025-06-03,0.046806224836005855,1.3077741283917712,-0.6921813533791538,-0.01631585308849081,0.3539168532398676
2025-06-04,0.0961991693294313,1.0417762490502807,-0.4611480819235279,-0.04991945198519156,0.37309211552900734
2025-06-05,0.08027299805810433,1.3924566535185856,-0.7426617337493404,-0.08029681340705826,0.3502288955797086
2025-06-06,0.07991300854596173,1.2582758559440284,-0.6781461995996051,-0.05685118373850443,0.3968085188481196
2025-06-09,0.051726303010520405,2.051101923426627,-1.4390751886162978,-0.0576083557588105,0.3938553179379612
2025-06-10,0.03423910033709668,2.0864374864122786,-1.4898352436244193,-0.03724783137284176,0.40640648824788606
2025-06-11,0.037678886845940146,2.0515591338601435,-1.4452240576312503,-0.03226024443066135,0.3882462813558279
2025-06-12,0.02877150232991942,1.9280769441825416,-1.2561675805469774,-0.05113532938768571,0.350454463422202
2025-06-13,0.04228518219328543,1.7019038956109411,-1.0361964637492782,-0.05562263070466806,0.3476300166497196
2025-06-16,0.011557011150381206,2.0092666115118636,-1.3520054242305797,-0.04350675165287119,0.37468855322120576
2025-06-17,0.017157326290141994,2.1187987703720372,-1.47651960384768,-0.04699794749504541,0.387561454680546
2025-06-18,0.007846863275237453,2.1409125688337687,-1.5138740417582914,-0.04795929186691809,0.4130739015162033
2025-06-20,-0.011029346817969396,2.432607518414364,-1.7628150111732446,-0.039017485796198924,0.38025432537304904
2025-06-23,-0.030968962556606798,2.5097931265796047,-1.804476786982145,-0.03158401338390467,0.3572366363430515
2025-06-24,-0.018379002403220702,2.2015888885725023,-1.5624954850738084,-0.010128340682434643,0.3894139395869616
2025-06-25,-0.001365733671836399,2.2335431298799167,-1.5298481946911227,-0.025662040366591133,0.3233328388496334
2025-06-26,0.028796714409528152,2.144161438809969,-1.4300265485801982,-0.07643090684804493,0.3334993022087461
2025-06-27,0.061065616198045646,1.9431909011341315,-1.2253176519409108,-0.10257343623680819,0.3236345708455421
2025-06-30,0.05380805241892063,1.9214473938724144,-1.2375728774320056,-0.0714383132592324,0.33375574439990313
2025-07-01,0.050871736589251544,1.8278421687689137,-1.1242095728655965,-0.07090272612218622,0.31639839362961736
2025-07-02,0.03750418127543904,2.048137265597729,-1.3297365958996854,-0.069127896844703,0.3132230458712207
2025-07-03,0.044193762170752,2.1658714849686156,-1.4022276897553405,-0.09251673571318239,0.28467917832915546
2025-07-07,0.04657266329430055,2.0990473133800926,-1.33162335269857,-0.08438909143332624,0.2703924674575028
2025-07-08,0.047627376870850134,2.046542204491018,-1.310444563367232,-0.0873670844304577,0.30364206643582137
2025-07-09,0.024891279820392364,2.384054151472087,-1.6264802878485087,-0.07658321063199336,0.2941180671880223
2025-07-10,0.03508272613390516,2.275183098673179,-1.5250978981899375,-0.0799127226184522,0.2947447960013052
2025-07-11,0.0334279390342474,2.2684557881386347,-1.5351209072425664,-0.07727609619168133,0.3105132762613661
2025-07-14,0.03160126739216593,2.21439494694455,-1.5152736374648814,-0.06930428707672362,0.33858171020488936
2025-07-15,0.015056535547822068,2.3394650357816675,-1.6313159895910976,-0.05934812802478813,0.3361425462863963
2025-07-16,0.049878854822021666,2.5521798738730084,-1.8029841178208221,-0.12733258253830285,0.32825797166409487
2025-07-17,0.07574773987191327,2.1103761334470392,-1.4325979704949958,-0.1258455078167106,0.3723196049927535
2025-07-18,0.060422928553406065,2.4487025512721785,-1.6824069828740376,-0.1410507759444712,0.3143322789929241
2025-07-21,0.07104503590059162,2.3597783376689696,-1.5965096851392393,-0.1510549108594419,0.31674122242912
2025-07-22,0.10944898970497444,2.0989696310575225,-1.3558831353222927,-0.1788963018557291,0.32636081641552456
2025-07-23,0.10185846695166872,1.9103274189276669,-1.1995264459961898,-0.14374989418517864,0.3310904543020327
2025-07-24,0.13129877916267743,1.7157572902493163,-1.032736589404276,-0.15520092284860867,0.3408814428408907
2025-07-25,0.11747226271312664,1.9276567837821446,-1.202640146112569,-0.16650719457968902,0.32401829419698724
2025-07-28,0.12089833388977259,1.9547384997648363,-1.2076484299373949,-0.1692315843342755,0.3012431806170616
2025-07-29,0.1335413673251316,2.083143098007676,-1.3052316101881665,-0.1832497744087236,0.2717969192640828
2025-07-30,0.14060442920349428,1.7772016876847965,-1.051543064166255,-0.16313803665660606,0.29687498393457035
2025-07-31,0.14111381716152535,2.0856468951288734,-1.3105671170891098,-0.1968327706597119,0.2806391754584227
2025-08-01,0.15284714804411562,2.054507387184601,-1.2749648178279842,-0.22060727282192127,0.28821755542118926
2025-08-04,0.13998448807882857,2.112893164553331,-1.296379030999442,-0.22377612970359884,0.26727750807088124
2025-08-05,0.13942285316511377,2.116379276865744,-1.3191942389571483,-0.21174987110850557,0.27514198003479606
2025-08-06,0.1618103321240814,2.0800668960437037,-1.301290246658328,-0.2312909107147014,0.2907039292052442
2025-08-07,0.19156488857553866,2.3453469651297754,-1.593067720769908,-0.2612604136133962,0.31741628067799044
2025-08-08,0.19689289337111,2.316320410815105,-1.6181423315471208,-0.2280013765312428,0.33293040389214834
2025-08-11,0.23349875391911876,1.912680071709019,-1.1910777164880881,-0.2784921885219934,0.32339107938194334
2025-08-12,0.2264342661216906,1.95102205224662,-1.193510950254335,-0.2747870581827923,0.29084169006881666
2025-08-13,0.22800778547875147,1.8928209386654384,-1.1283097890349678,-0.27550838302616715,0.28298944791694486
2025-08-14,0.21261148842537944,2.013026097296441,-1.2409025820875736,-0.26365445799143267,0.27891945435718585
2025-08-15,0.21547398041351154,2.1424714805559097,-1.3666038435000085,-0.26744897641683,0.27610735894741745
2025-08-18,0.19169809521564982,2.3896861595038246,-1.622278898963681,-0.2562764475587645,0.29717109180297113
2025-08-19,0.21939131979654208,2.2145089296318874,-1.4762297019199218,-0.2823202179353206,0.3246496704268129
2025-08-20,0.17628940591424475,2.159209492671427,-1.4161566913241839,-0.23019951121279172,0.3108573039513038
2025-08-21,0.1958421124402862,1.9178194451222068,-1.2110276391917727,-0.23244725454798404,0.3298133361772637
2025-08-22,0.17350491332311446,2.2061553395666125,-1.480495870896855,-0.2357063560153644,0.3365419740224928
2025-08-25,0.16372334067060734,2.283232151651704,-1.5602237891285047,-0.21265809069304312,0.3259263874992364
2025-08-26,0.1579444370358331,2.4407006112032748,-1.7120247748677089,-0.22307240455851757,0.3364521311871186
2025-08-27,0.19941165607096106,1.966608836058901,-1.2429747742802084,-0.25266955011600756,0.32962383226635394
2025-08-28,0.2291045777858812,1.763685911639892,-1.0617661610089622,-0.28112155528317967,0.35009722686636885
2025-08-29,0.2595619244903788,1.4451253722387958,-0.7607129865102392,-0.29795945122373113,0.3539851410047958
2025-09-02,0.28001435479566744,1.1380680400516463,-0.5139512171570471,-0.30098479625618696,0.39685361856592033
2025-09-03,0.2742627772892625,1.2510631903183205,-0.6258904043133886,-0.30931966800925415,0.40988410471505987
2025-09-04,0.2558328977527232,1.338424347466736,-0.6769211711764483,-0.29537551898563497,0.3780394449426241
2025-09-05,0.24144740775312423,1.2992372785300987,-0.5967240135219793,-0.2900498620001256,0.34608918923888204
2025-09-08,0.2318800796114138,1.5598712120426552,-0.8555929322421922,-0.27830281547631686,0.34214445606444
2025-09-09,0.2216704140042776,1.7844424301146051,-1.0640528640053857,-0.28188475240373734,0.3398247722902404
2025-09-10,0.2531527833635585,1.621860522205461,-0.9383911684972851,-0.2981650272557682,0.3615428901840338
2025-09-11,0.309903667065349,1.2219568824550282,-0.5823529789374718,-0.3283182460174007,0.3788106754344952
2025-09-12,0.2908676100607337,1.339562815356983,-0.6922350670601495,-0.30836076752797636,0.3701654091704092
2025-09-15,0.25408429605074295,1.904303213482177,-1.19626874647797,-0.31232458296480053,0.3502058199098506
2025-09-16,0.23872834779192684,1.9462163977841676,-1.2309577479020113,-0.30317615042165813,0.34918915274757517
2025-09-17,0.23855391523834263,1.922520065655666,-1.1888055180489643,-0.30979699291988205,0.3375285300748378
2025-09-18,0.2513498598936715,1.946363265951917,-1.2108062498882417,-0.328729223734932,0.34182234777758497
2025-09-19,0.27955150530220607,1.8960092131340223,-1.1965825705225137,-0.3483646999320387,0.3693865520183238
2025-09-22,0.2888129647581349,1.7608476891719274,-1.0800146619036937,-0.35026908265971746,0.3806230906333486
2025-09-23,0.30285450694866406,1.5292294762485035,-0.8690255003023276,-0.35390181435430573,0.39084333145946576
2025-09-24,0.2950685597942328,1.3840907541585876,-0.7364293958954237,-0.3420222156107758,0.3992922975533791
2025-09-25,0.27668160110174367,1.681236459157862,-0.9878295787851642,-0.3410021704510738,0.3709136889766324
2025-09-26,0.2619709405308612,1.8611907358965403,-1.1397204627280546,-0.347507081968459,0.36406586826911236
2025-09-29,0.24917971631551053,2.00174650373841,-1.2744640700167937,-0.3330918978758401,0.3566297478387133
2025-09-30,0.23834802025218027,1.9102847555602531,-1.1752297084998082,-0.3167235051559422,0.3433204378433172
2025-10-01,0.24295677024996665,1.809398600696584,-1.1015121258117944,-0.3088174908619646,0.35797424572720815
2025-10-02,0.24709456880910458,1.813804690357889,-1.1156381829570277,-0.31168998047556445,0.3664289042655985
2025-10-03,0.23284153641228528,1.8848551619882206,-1.1435572305563133,-0.3161081537718683,0.34196868592767543
2025-10-06,0.23206980464344448,2.005400408721783,-1.2784335804123108,-0.30969707540511104,0.3506604424521944
2025-10-07,0.23840373419999014,1.9323476976484668,-1.2123456548845515,-0.3149911749346542,0.356585397970749
2025-10-08,0.23213234566816948,1.7923982481329763,-1.0651847770049307,-0.30361485382797715,0.3442690370317621
2025-10-09,0.24149067395890622,1.4621631930391383,-0.744015357088517,-0.30357212900994046,0.343933619100413
2025-10-10,0.25622946903179883,1.3149177824541491,-0.5916205166025167,-0.30715721020285075,0.32763047531941936
2025-10-13,0.23818424748905484,1.2147643750556736,-0.4884942925001099,-0.306825665740565,0.3423713356959465
2025-10-14,0.22622773671943938,1.2429410050486147,-0.5084101504847196,-0.29746308831231705,0.3367044970289828
2025-10-15,0.2172065848781432,1.1877827110364363,-0.46632719026071245,-0.2766157076458985,0.33795360199203145
2025-10-16,0.20546339960760573,1.3009473164275465,-0.5767410473613044,-0.26925984662088115,0.3395901779470331
2025-10-17,0.19935312636390257,1.247006559800127,-0.5151931411989312,-0.27155448275941746,0.34038793779431903
2025-10-20,0.2327458006214683,1.1687970397456264,-0.45258898763800665,-0.29445864457671916,0.34550479184763117
2025-10-21,0.23176169356435217,1.2267821929926765,-0.5071611444896598,-0.3002742059459202,0.34889146387855113
2025-10-22,0.22826525958274343,1.2262540107783904,-0.423539344134748,-0.29027744490976526,0.2592975186833795
2025-10-23,0.21584563173822272,1.3186412514311343,-0.5041283906551937,-0.285481043620565,0.2551225511064018
2025-10-24,0.185591204781908,1.5167216118143103,-0.6840040886493964,-0.25362101937516585,0.235312291428344
2025-10-27,0.20718687263924174,1.3146298311521465,-0.4923821438346923,-0.2622364067869707,0.23280184683027455
2025-10-28,0.21714224050291164,1.4169615509224793,-0.5630955095784047,-0.2748329849524144,0.2038247031054282
2025-10-29,0.22904212519358808,1.4038451076262937,-0.538476912680342,-0.2935411392526953,0.19913081911315567
2025-10-30,0.2259911233311401,1.5464081552262834,-0.6654684288199917,-0.3018302724033002,0.1948994226658682
